<?xml version="1.0"?>
<opencv_storage>
<stage5>
  <maxWeakCount>6</maxWeakCount>
  <stageThreshold>-1.6589577198028564e+00</stageThreshold>
  <weakClassifiers>
    <_>
      <internalNodes>
        0 -1 1431 -536903809 -9761 -42205185 -571477669 -69632193
        -72619345 -338953601 -67108869</internalNodes>
      <leafValues>
        -8.0300825834274292e-01 3.9726027846336365e-01</leafValues></_>
    <_>
      <internalNodes>
        0 -1 20578 -8388705 741921779 -199002402 -1999184105 -12846353
        550496923 -1148196609 -2130706433</internalNodes>
      <leafValues>
        -7.5680416822433472e-01 3.6010986566543579e-01</leafValues></_>
    <_>
      <internalNodes>
        0 -1 6524 838858751 1004359647 -585916705 -70787893 -1158628353
        -73664030 -650596646 -1108423493</internalNodes>
      <leafValues>
        -5.1768183708190918e-01 6.0541582107543945e-01</leafValues></_>
    <_>
      <internalNodes>
        0 -1 14542 -8398060 -1075971985 1957812631 -79823585 -90096868
        -17377217 -353186816 -390078394</internalNodes>
      <leafValues>
        -5.7679617404937744e-01 4.8973190784454346e-01</leafValues></_>
    <_>
      <internalNodes>
        0 -1 2734 1896174079 -695080295 -785517091 -10509926 1487674356
        -611051869 885725117 1865877318</internalNodes>
      <leafValues>
        -7.0084774494171143e-01 4.1605931520462036e-01</leafValues></_>
    <_>
      <internalNodes>
        0 -1 19051 -780665071 -75563714 -65763 2037645094 1979186916
        -1040318474 1713831703 -130549773</internalNodes>
      <leafValues>
        -4.8725470900535583e-01 5.9799540042877197e-01</leafValues></_></weakClassifiers></stage5>
</opencv_storage>
