<?xml version="1.0"?>
<opencv_storage>
<stage19>
  <maxWeakCount>8</maxWeakCount>
  <stageThreshold>-1.9748954772949219e+00</stageThreshold>
  <weakClassifiers>
    <_>
      <internalNodes>
        0 -1 2926 -109582661 -786035678 1806492723 -1859869067
        -269877304 -817823764 1983813054 -283122869</internalNodes>
      <leafValues>
        -6.1414295434951782e-01 1.</leafValues></_>
    <_>
      <internalNodes>
        0 -1 6301 -536821157 -267189998 268566609 423104514 269230256
        -2004807680 -2146926037 1403207683</internalNodes>
      <leafValues>
        -5.3557294607162476e-01 4.6745949983596802e-01</leafValues></_>
    <_>
      <internalNodes>
        0 -1 18358 -737123568 -796360668 -2147352575 -2146283503
        -2147450643 -805306368 -2080302975 -1337301984</internalNodes>
      <leafValues>
        -5.3285831212997437e-01 4.6142974495887756e-01</leafValues></_>
    <_>
      <internalNodes>
        0 -1 3242 -713438983 -1721749770 -302016911 -175698060
        1295142143 242581300 2038249789 -775962015</internalNodes>
      <leafValues>
        -4.0212044119834900e-01 7.0144736766815186e-01</leafValues></_>
    <_>
      <internalNodes>
        0 -1 16780 269715740 -251527167 16797723 -1761542144 1107855367
        33980432 8389260 76130320</internalNodes>
      <leafValues>
        -5.9863328933715820e-01 4.4819086790084839e-01</leafValues></_>
    <_>
      <internalNodes>
        0 -1 4970 -219775114 2112843311 -17040137 -1503441282 -268540808
        1283291005 -822380577 -1032175403</internalNodes>
      <leafValues>
        -4.5583060383796692e-01 6.5399640798568726e-01</leafValues></_>
    <_>
      <internalNodes>
        0 -1 20332 -1052634108 8585281 1073745921 1157648594 -1845329748
        -1744830208 1073741978 1619249355</internalNodes>
      <leafValues>
        -5.4758030176162720e-01 5.6515777111053467e-01</leafValues></_>
    <_>
      <internalNodes>
        0 -1 3089 -230481078 1359683968 2065 285310992 -385867776
        -2147350400 573576 1095090435</internalNodes>
      <leafValues>
        -5.0446248054504395e-01 6.3207805156707764e-01</leafValues></_></weakClassifiers></stage19>
</opencv_storage>
