<?xml version="1.0"?>
<opencv_storage>
<stage6>
  <maxWeakCount>6</maxWeakCount>
  <stageThreshold>-1.8843122720718384e+00</stageThreshold>
  <weakClassifiers>
    <_>
      <internalNodes>
        0 -1 18845 -1107298305 -1084493673 -1118446081 -2118161
        -104202501 -149258088 -134374661 -3146499</internalNodes>
      <leafValues>
        -7.4381369352340698e-01 2.4533000588417053e-01</leafValues></_>
    <_>
      <internalNodes>
        0 -1 1362 -221249539 -695090726 -685639233 -1242639995
        1395881317 -2106257294 -89987979 -147588233</internalNodes>
      <leafValues>
        -6.7515170574188232e-01 3.8631436228752136e-01</leafValues></_>
    <_>
      <internalNodes>
        0 -1 16648 -203687041 -1260848256 -49947425 -1526736490
        -342889479 -862914101 -118963779 -1996489477</internalNodes>
      <leafValues>
        -6.2008500099182129e-01 3.9608347415924072e-01</leafValues></_>
    <_>
      <internalNodes>
        0 -1 9924 -4196560 -572927291 -795894979 1066111135 -93693906
        -1165757489 -1173616118 706715191</internalNodes>
      <leafValues>
        -6.3945478200912476e-01 3.9085230231285095e-01</leafValues></_>
    <_>
      <internalNodes>
        0 -1 16584 -77598465 -99610261 1699823955 -145360301 -146458694
        -1077729663 1529023688 486385902</internalNodes>
      <leafValues>
        -7.0978003740310669e-01 3.7705269455909729e-01</leafValues></_>
    <_>
      <internalNodes>
        0 -1 1392 -892011668 -721116695 2105722333 -13449016 -662346532
        -605901582 -1694016257 1863779414</internalNodes>
      <leafValues>
        -5.8615005016326904e-01 4.4250690937042236e-01</leafValues></_></weakClassifiers></stage6>
</opencv_storage>
