<?xml version="1.0"?>
<opencv_storage>
<stage16>
  <maxWeakCount>11</maxWeakCount>
  <stageThreshold>-1.3705163002014160e+00</stageThreshold>
  <weakClassifiers>
    <_>
      <internalNodes>
        0 -1 18410 -799671849 -1076510119 1342194133 -44969791
        -536853812 -3604479 -528404282 -1064821</internalNodes>
      <leafValues>
        -6.5267854928970337e-01 2.0192307233810425e-01</leafValues></_>
    <_>
      <internalNodes>
        0 -1 5357 2101704211 -644546551 -989768293 318849865 -643151093
        -88079805 -1706353748 -72677325</internalNodes>
      <leafValues>
        -5.8547681570053101e-01 2.3390491306781769e-01</leafValues></_>
    <_>
      <internalNodes>
        0 -1 18674 -491267040 -1089814160 1087308853 -2087190191
        -524615380 -1434279512 -924842872 -1193698045</internalNodes>
      <leafValues>
        -5.0409448146820068e-01 3.2035860419273376e-01</leafValues></_>
    <_>
      <internalNodes>
        0 -1 13681 1315699668 -1822850229 572690457 498442243 673950644
        -1977933628 -338845052 -1474705885</internalNodes>
      <leafValues>
        -4.0407073497772217e-01 4.0746527910232544e-01</leafValues></_>
    <_>
      <internalNodes>
        0 -1 21006 -1765279233 -1710096031 -2130640743 713467092 692703
        -1971256959 -2143042593 785049828</internalNodes>
      <leafValues>
        -5.5567967891693115e-01 3.0792936682701111e-01</leafValues></_>
    <_>
      <internalNodes>
        0 -1 11900 -1675838032 304628678 457184976 -1119047659
        -1551121673 -1339391311 -2118842401 -1142056548</internalNodes>
      <leafValues>
        -4.1498684883117676e-01 4.3100622296333313e-01</leafValues></_>
    <_>
      <internalNodes>
        0 -1 13598 307712409 -58617840 1476481413 -1106139005
        -1962901224 -1238806525 -1274835819 -1996504064</internalNodes>
      <leafValues>
        -5.2643066644668579e-01 3.3190509676933289e-01</leafValues></_>
    <_>
      <internalNodes>
        0 -1 1158 -1071914490 1653501967 1091047582 680001951 721056
        -200212318 1090522705 1141318198</internalNodes>
      <leafValues>
        -7.0617556571960449e-01 2.5450754165649414e-01</leafValues></_>
    <_>
      <internalNodes>
        0 -1 20942 -601639918 499879228 520011429 -579473739 -1494207511
        -274268298 532313246 -1517368301</internalNodes>
      <leafValues>
        -3.9787241816520691e-01 4.5125207304954529e-01</leafValues></_>
    <_>
      <internalNodes>
        0 -1 3232 -126421750 595771342 1736423282 -235552988 896855967
        770080604 125224096 -706807990</internalNodes>
      <leafValues>
        -4.1244161128997803e-01 4.6181991696357727e-01</leafValues></_>
    <_>
      <internalNodes>
        0 -1 17595 1013247196 1348927436 -16924803 -1075724481
        -1074088547 -709493123 -2097269524 -1468227671</internalNodes>
      <leafValues>
        -4.0789708495140076e-01 4.6186250448226929e-01</leafValues></_></weakClassifiers></stage16>
</opencv_storage>
