<?xml version="1.0"?>
<opencv_storage>
<stage9>
  <maxWeakCount>8</maxWeakCount>
  <stageThreshold>-1.8863322734832764e+00</stageThreshold>
  <weakClassifiers>
    <_>
      <internalNodes>
        0 -1 5353 1976172543 -169617399 -670772771 -16216045 2043530427
        -91530609 -75200325 -3200791</internalNodes>
      <leafValues>
        -6.8115943670272827e-01 2.5609755516052246e-01</leafValues></_>
    <_>
      <internalNodes>
        0 -1 471 -320149265 -189347798 44482999 -287313635 -393420596
        -1820284543 -997397539 -713820201</internalNodes>
      <leafValues>
        -4.7703960537910461e-01 4.5883932709693909e-01</leafValues></_>
    <_>
      <internalNodes>
        0 -1 5358 1995669361 -2547309 -587177475 -539917985 -89445633
        -1685342194 -1631011169 -102884595</internalNodes>
      <leafValues>
        -4.9826163053512573e-01 4.3159610033035278e-01</leafValues></_>
    <_>
      <internalNodes>
        0 -1 21013 -1349260561 179761240 159545548 -1594955044 -99942721
        -930553656 -1700015429 -993032665</internalNodes>
      <leafValues>
        -5.6604284048080444e-01 4.0377089381217957e-01</leafValues></_>
    <_>
      <internalNodes>
        0 -1 13300 14686968 -1684794537 -318739975 798442166 -609047879
        1052457369 1266682810 720386700</internalNodes>
      <leafValues>
        -6.4000087976455688e-01 3.7031799554824829e-01</leafValues></_>
    <_>
      <internalNodes>
        0 -1 16648 -540803590 1419039027 -1791770473 542217105
        -2013216322 -526334830 2030300153 -2000955749</internalNodes>
      <leafValues>
        -6.3001835346221924e-01 3.1746208667755127e-01</leafValues></_>
    <_>
      <internalNodes>
        0 -1 8336 -215483648 -1592929929 -776466051 219502780 -863313379
        855486601 -485561596 163553199</internalNodes>
      <leafValues>
        -6.5623831748962402e-01 3.1361511349678040e-01</leafValues></_>
    <_>
      <internalNodes>
        0 -1 13641 -1827654220 -203912189 -678192807 -1189240743
        -1425237789 151752888 -352404977 -1348456876</internalNodes>
      <leafValues>
        -6.7858988046646118e-01 3.2276153564453125e-01</leafValues></_></weakClassifiers></stage9>
</opencv_storage>
