<?xml version="1.0"?>
<opencv_storage>
<stage14>
  <maxWeakCount>9</maxWeakCount>
  <stageThreshold>-1.5305849313735962e+00</stageThreshold>
  <weakClassifiers>
    <_>
      <internalNodes>
        0 -1 20583 -136841761 -1210625633 1107345812 -1107970233
        1342226843 -1740602752 -1014904430 -69209361</internalNodes>
      <leafValues>
        -6.5307968854904175e-01 1.6158536076545715e-01</leafValues></_>
    <_>
      <internalNodes>
        0 -1 1401 1944279445 -1853394615 475079007 1976138025
        -1987094051 -901291939 -1145306248 -538477187</internalNodes>
      <leafValues>
        -6.0997325181961060e-01 2.2057220339775085e-01</leafValues></_>
    <_>
      <internalNodes>
        0 -1 46 -641536001 -876568103 -770506737 -1918222316 -931093877
        -1406435301 -1045642097 -908902157</internalNodes>
      <leafValues>
        -3.9949810504913330e-01 4.2829608917236328e-01</leafValues></_>
    <_>
      <internalNodes>
        0 -1 943 -136334630 -12000632 -1067825921 -566226427 553832908
        -116783741 1248330652 -312176640</internalNodes>
      <leafValues>
        -4.6948486566543579e-01 3.5167494416236877e-01</leafValues></_>
    <_>
      <internalNodes>
        0 -1 8366 79969076 -1216820815 2108302207 699638175 816989373
        1034715532 -642957656 -1421017024</internalNodes>
      <leafValues>
        -5.6203758716583252e-01 3.4635898470878601e-01</leafValues></_>
    <_>
      <internalNodes>
        0 -1 2685 -796358246 1259061875 12898762 -653244321 -794736438
        -805304165 17320398 526399078</internalNodes>
      <leafValues>
        -7.4615234136581421e-01 2.2549900412559509e-01</leafValues></_>
    <_>
      <internalNodes>
        0 -1 5661 -1037382454 -1981235134 2212321 -745553723 -532576121
        -402128768 806068417 -973874525</internalNodes>
      <leafValues>
        -4.3025577068328857e-01 4.3842142820358276e-01</leafValues></_>
    <_>
      <internalNodes>
        0 -1 6661 -355672512 -1127299697 1158679580 2102727050
        -742843655 -343638001 -662107996 6683718</internalNodes>
      <leafValues>
        -6.8631094694137573e-01 2.7814009785652161e-01</leafValues></_>
    <_>
      <internalNodes>
        0 -1 20970 -705181541 -34693276 -1686308906 2103900210
        1572645594 -1636500107 -965284970 -927213888</internalNodes>
      <leafValues>
        -3.4855929017066956e-01 5.4840862751007080e-01</leafValues></_></weakClassifiers></stage14>
</opencv_storage>
