<?xml version="1.0"?>
<opencv_storage>
<stage13>
  <maxWeakCount>11</maxWeakCount>
  <stageThreshold>-1.7788790464401245e+00</stageThreshold>
  <weakClassifiers>
    <_>
      <internalNodes>
        0 -1 1401 -237276681 -117096157 -805078059 -779630761 -333620741
        -1190640640 -106466338 -1573009</internalNodes>
      <leafValues>
        -7.2596919536590576e-01 3.1600408256053925e-02</leafValues></_>
    <_>
      <internalNodes>
        0 -1 15948 205909749 -1134587686 1157946429 -1109630585
        -347551589 -24231670 -1299807585 -1148261751</internalNodes>
      <leafValues>
        -5.7649034261703491e-01 2.3914656043052673e-01</leafValues></_>
    <_>
      <internalNodes>
        0 -1 11585 5019024 1036300748 218569213 -377347686 -2017445236
        -642940805 1018897406 214706544</internalNodes>
      <leafValues>
        -6.4539158344268799e-01 2.2692203521728516e-01</leafValues></_>
    <_>
      <internalNodes>
        0 -1 437 491705990 1338897283 -1526463570 -1282375480 2126528415
        68018819 -1424379921 1744760031</internalNodes>
      <leafValues>
        -5.0451213121414185e-01 3.3507350087165833e-01</leafValues></_>
    <_>
      <internalNodes>
        0 -1 18401 -645762217 240292117 -1996140079 205639872 -665725955
        -1912602047 -1282364695 -1999779576</internalNodes>
      <leafValues>
        -7.1291780471801758e-01 2.3488157987594604e-01</leafValues></_>
    <_>
      <internalNodes>
        0 -1 17692 -75246152 -104193528 -1040038652 -112618612
        -1836410188 -132513727 -251471520 -248136877</internalNodes>
      <leafValues>
        -4.7662496566772461e-01 3.5044693946838379e-01</leafValues></_>
    <_>
      <internalNodes>
        0 -1 5350 2107275253 360743952 285855965 -645705342 1540059387
        -134168373 -393209714 -1146654432</internalNodes>
      <leafValues>
        -5.7311111688613892e-01 3.0269458889961243e-01</leafValues></_>
    <_>
      <internalNodes>
        0 -1 2070 -701052206 -255811549 556024951 2004988249 -522253064
        1223917569 -532147067 286984067</internalNodes>
      <leafValues>
        -4.8502877354621887e-01 3.6081212759017944e-01</leafValues></_>
    <_>
      <internalNodes>
        0 -1 10705 1683024864 856820226 83893077 529540114 1677728427
        -276098929 1796152251 1323829398</internalNodes>
      <leafValues>
        -5.6321007013320923e-01 3.2048985362052917e-01</leafValues></_>
    <_>
      <internalNodes>
        0 -1 20374 -361587093 345444045 -402691340 -1329627174
        1270615812 -379783347 -125986625 -260574773</internalNodes>
      <leafValues>
        -4.0585818886756897e-01 4.4924071431159973e-01</leafValues></_>
    <_>
      <internalNodes>
        0 -1 19505 -993264125 1983508499 8638787 -1718275694 298107020
        -1034206527 -132077089 443250070</internalNodes>
      <leafValues>
        -3.9455085992813110e-01 4.7899907827377319e-01</leafValues></_></weakClassifiers></stage13>
</opencv_storage>
