<?xml version="1.0"?>
<opencv_storage>
<stage7>
  <maxWeakCount>7</maxWeakCount>
  <stageThreshold>-1.0842814445495605e+00</stageThreshold>
  <weakClassifiers>
    <_>
      <internalNodes>
        0 -1 4043 -3180549 -573585961 -1656094753 -712951585 -24424961
        -91493707 -7737345 -67372101</internalNodes>
      <leafValues>
        -7.3289287090301514e-01 2.9127517342567444e-01</leafValues></_>
    <_>
      <internalNodes>
        0 -1 17833 477690875 -1395406081 -577335041 -1920607777
        -78931729 -1078736765 -540808517 -1074935181</internalNodes>
      <leafValues>
        -6.5375149250030518e-01 3.8432419300079346e-01</leafValues></_>
    <_>
      <internalNodes>
        0 -1 19628 -1 -537395201 -4 -838861060 -301991972 -285229059
        -587213380 -587727111</internalNodes>
      <leafValues>
        -4.6116238832473755e-01 5.2836638689041138e-01</leafValues></_>
    <_>
      <internalNodes>
        0 -1 1402 -157918389 -33775201 -638133898 -171216758 1668445441
        -516912573 -341103802 -160211673</internalNodes>
      <leafValues>
        -6.8400418758392334e-01 3.6321124434471130e-01</leafValues></_>
    <_>
      <internalNodes>
        0 -1 9921 -713574636 -170117881 423924525 -1748403401
        -1848429940 -71717975 -56510196 -1393874390</internalNodes>
      <leafValues>
        -5.5288720130920410e-01 4.7601306438446045e-01</leafValues></_>
    <_>
      <internalNodes>
        0 -1 839 -867512581 -816256685 -965205603 -1257709686
        -1023202591 -1399682899 328939741 1576526183</internalNodes>
      <leafValues>
        -5.2484405040740967e-01 4.7591546177864075e-01</leafValues></_>
    <_>
      <internalNodes>
        0 -1 5308 -320016385 -145031425 -81993 -8863944 -1074462721
        -1644726316 -25804801 -61574032</internalNodes>
      <leafValues>
        -4.9392780661582947e-01 5.2669370174407959e-01</leafValues></_></weakClassifiers></stage7>
</opencv_storage>
