<?xml version="1.0"?>
<opencv_storage>
<stage10>
  <maxWeakCount>10</maxWeakCount>
  <stageThreshold>-1.8073455095291138e+00</stageThreshold>
  <weakClassifiers>
    <_>
      <internalNodes>
        0 -1 1401 -67406881 -49327601 -787410465 -179838637 -745834053
        -645721727 -622167073 -1049633</internalNodes>
      <leafValues>
        -7.1873432397842407e-01 1.0882016271352768e-01</leafValues></_>
    <_>
      <internalNodes>
        0 -1 14444 -754192103 -49594048 -620557931 -49680029 -619132776
        -1618372096 -31477540 -1939342665</internalNodes>
      <leafValues>
        -5.5591166019439697e-01 3.3678707480430603e-01</leafValues></_>
    <_>
      <internalNodes>
        0 -1 2273 -521737478 -69277737 -1744710305 2144362604 48454619
        -366316105 1217088511 1239111304</internalNodes>
      <leafValues>
        -5.2580696344375610e-01 3.7647178769111633e-01</leafValues></_>
    <_>
      <internalNodes>
        0 -1 16667 918814173 -1646847979 -788147883 2098696542 -95424259
        -74464892 1526789531 -1076978549</internalNodes>
      <leafValues>
        -5.0512087345123291e-01 3.7647894024848938e-01</leafValues></_>
    <_>
      <internalNodes>
        0 -1 20543 -612370985 -331307835 1083693185 -736179408 176405386
        1073981348 1372321776 3396075</internalNodes>
      <leafValues>
        -5.2986156940460205e-01 4.1395768523216248e-01</leafValues></_>
    <_>
      <internalNodes>
        0 -1 11461 877928308 -616256183 -1862200963 790861537 1218482408
        -1144995632 -1022380356 -1075245369</internalNodes>
      <leafValues>
        -4.8655879497528076e-01 4.1168698668479919e-01</leafValues></_>
    <_>
      <internalNodes>
        0 -1 1239 -25170705 -8978641 -65553 -358416658 -440532994
        -176326691 -671612955 -163318045</internalNodes>
      <leafValues>
        -4.1477522253990173e-01 5.0233471393585205e-01</leafValues></_>
    <_>
      <internalNodes>
        0 -1 12812 -807676076 -1189232589 25248061 1025450499 2089783596
        -1632976374 1142967340 -2070746962</internalNodes>
      <leafValues>
        -6.0527384281158447e-01 3.3183524012565613e-01</leafValues></_>
    <_>
      <internalNodes>
        0 -1 9743 -120570916 -179260598 1360024539 535204228 595596028
        -1891755893 1847794331 -1345844595</internalNodes>
      <leafValues>
        -4.5402219891548157e-01 4.3343296647071838e-01</leafValues></_>
    <_>
      <internalNodes>
        0 -1 20581 -1647341351 -1318935341 -1022951173 -1785540543
        -1878949700 -2004467710 273269707 -1082159887</internalNodes>
      <leafValues>
        -6.1051440238952637e-01 3.4066694974899292e-01</leafValues></_></weakClassifiers></stage10>
</opencv_storage>
