<?xml version="1.0"?>
<opencv_storage>
<stage9>
  <maxWeakCount>56</maxWeakCount>
  <stageThreshold>-2.0644378662109375e+00</stageThreshold>
  <weakClassifiers>
    <_>
      <internalNodes>
        0 -1 274 8.2400776445865631e-02</internalNodes>
      <leafValues>
        -6.5019506216049194e-01 -2.5339367985725403e-01</leafValues></_>
    <_>
      <internalNodes>
        0 -1 129 1.5742328017950058e-02</internalNodes>
      <leafValues>
        3.0924803018569946e-01 -2.2815530002117157e-01</leafValues></_>
    <_>
      <internalNodes>
        0 -1 294 9.9888630211353302e-03</internalNodes>
      <leafValues>
        2.0297278463840485e-01 -3.0606955289840698e-01</leafValues></_>
    <_>
      <internalNodes>
        0 -1 426 5.4809059947729111e-02</internalNodes>
      <leafValues>
        -4.3976220488548279e-01 1.3960072398185730e-01</leafValues></_>
    <_>
      <internalNodes>
        0 -1 535 6.3163354992866516e-02</internalNodes>
      <leafValues>
        1.5290200710296631e-01 -3.9285397529602051e-01</leafValues></_>
    <_>
      <internalNodes>
        0 -1 76 5.8728858828544617e-02</internalNodes>
      <leafValues>
        1.3892386853694916e-01 -3.9631110429763794e-01</leafValues></_>
    <_>
      <internalNodes>
        0 -1 436 3.4615688025951385e-02</internalNodes>
      <leafValues>
        -4.6741324663162231e-01 1.0368885099887848e-01</leafValues></_>
    <_>
      <internalNodes>
        0 -1 465 1.6201304271817207e-02</internalNodes>
      <leafValues>
        -2.6834478974342346e-01 1.9550359249114990e-01</leafValues></_>
    <_>
      <internalNodes>
        0 -1 318 6.0854319483041763e-02</internalNodes>
      <leafValues>
        -2.0390549302101135e-01 2.2527483105659485e-01</leafValues></_>
    <_>
      <internalNodes>
        0 -1 1 6.8368762731552124e-03</internalNodes>
      <leafValues>
        -4.7592285275459290e-01 1.0218325257301331e-01</leafValues></_>
    <_>
      <internalNodes>
        0 -1 550 7.7873496338725090e-03</internalNodes>
      <leafValues>
        -5.1172983646392822e-01 7.6531112194061279e-02</leafValues></_>
    <_>
      <internalNodes>
        0 -1 272 1.8278632313013077e-02</internalNodes>
      <leafValues>
        1.3567458093166351e-01 -3.2041755318641663e-01</leafValues></_>
    <_>
      <internalNodes>
        0 -1 131 1.6453821212053299e-02</internalNodes>
      <leafValues>
        -2.6119250059127808e-01 1.9201467931270599e-01</leafValues></_>
    <_>
      <internalNodes>
        0 -1 525 5.2584864199161530e-02</internalNodes>
      <leafValues>
        -3.3608993887901306e-01 1.1841540783643723e-01</leafValues></_>
    <_>
      <internalNodes>
        0 -1 573 2.2661354392766953e-02</internalNodes>
      <leafValues>
        6.8061642348766327e-02 -4.7643047571182251e-01</leafValues></_>
    <_>
      <internalNodes>
        0 -1 538 9.9456887692213058e-03</internalNodes>
      <leafValues>
        -3.1766611337661743e-01 1.1431300640106201e-01</leafValues></_>
    <_>
      <internalNodes>
        0 -1 431 2.9353620484471321e-02</internalNodes>
      <leafValues>
        6.4790055155754089e-02 -5.3816622495651245e-01</leafValues></_>
    <_>
      <internalNodes>
        0 -1 191 1.6041602939367294e-02</internalNodes>
      <leafValues>
        1.5682397782802582e-01 -2.1773655712604523e-01</leafValues></_>
    <_>
      <internalNodes>
        0 -1 449 1.0237516462802887e-01</internalNodes>
      <leafValues>
        4.5583046972751617e-02 -7.1515935659408569e-01</leafValues></_>
    <_>
      <internalNodes>
        0 -1 484 3.0464192852377892e-02</internalNodes>
      <leafValues>
        -1.6721400618553162e-01 2.4270178377628326e-01</leafValues></_>
    <_>
      <internalNodes>
        0 -1 231 2.0009113475680351e-02</internalNodes>
      <leafValues>
        6.8341121077537537e-02 -5.1134175062179565e-01</leafValues></_>
    <_>
      <internalNodes>
        0 -1 69 9.8926317878067493e-04</internalNodes>
      <leafValues>
        -6.3112348318099976e-01 5.4871995002031326e-02</leafValues></_>
    <_>
      <internalNodes>
        0 -1 165 5.9959273785352707e-03</internalNodes>
      <leafValues>
        -9.4737750291824341e-01 2.2125573828816414e-02</leafValues></_>
    <_>
      <internalNodes>
        0 -1 37 3.1684044748544693e-02</internalNodes>
      <leafValues>
        -1.2183304876089096e-01 2.5845199823379517e-01</leafValues></_>
    <_>
      <internalNodes>
        0 -1 428 1.2538710609078407e-02</internalNodes>
      <leafValues>
        1.5724276006221771e-01 -1.9394023716449738e-01</leafValues></_>
    <_>
      <internalNodes>
        0 -1 517 9.3432635068893433e-02</internalNodes>
      <leafValues>
        4.1296944022178650e-02 -7.3987048864364624e-01</leafValues></_>
    <_>
      <internalNodes>
        0 -1 129 8.7759494781494141e-02</internalNodes>
      <leafValues>
        4.1878100484609604e-02 -6.6515821218490601e-01</leafValues></_>
    <_>
      <internalNodes>
        0 -1 139 5.8338366448879242e-02</internalNodes>
      <leafValues>
        -3.9019468426704407e-01 7.9356104135513306e-02</leafValues></_>
    <_>
      <internalNodes>
        0 -1 550 5.5689591914415359e-02</internalNodes>
      <leafValues>
        -6.0616783797740936e-02 5.5352067947387695e-01</leafValues></_>
    <_>
      <internalNodes>
        0 -1 318 1.8551466986536980e-02</internalNodes>
      <leafValues>
        -5.0788992643356323e-01 6.6482320427894592e-02</leafValues></_>
    <_>
      <internalNodes>
        0 -1 569 1.5771131962537766e-02</internalNodes>
      <leafValues>
        -2.6111510396003723e-01 1.3459138572216034e-01</leafValues></_>
    <_>
      <internalNodes>
        0 -1 108 5.7634878903627396e-03</internalNodes>
      <leafValues>
        -4.1534835100173950e-01 6.9478571414947510e-02</leafValues></_>
    <_>
      <internalNodes>
        0 -1 424 9.8141431808471680e-03</internalNodes>
      <leafValues>
        1.6055937111377716e-01 -1.9316460192203522e-01</leafValues></_>
    <_>
      <internalNodes>
        0 -1 448 1.9131448119878769e-02</internalNodes>
      <leafValues>
        -2.0523592829704285e-01 1.4953576028347015e-01</leafValues></_>
    <_>
      <internalNodes>
        0 -1 441 1.2538742274045944e-02</internalNodes>
      <leafValues>
        2.1147614717483521e-01 -1.5884411334991455e-01</leafValues></_>
    <_>
      <internalNodes>
        0 -1 567 1.0346397757530212e-02</internalNodes>
      <leafValues>
        -2.7394151687622070e-01 1.3224130868911743e-01</leafValues></_>
    <_>
      <internalNodes>
        0 -1 189 2.3435140610672534e-04</internalNodes>
      <leafValues>
        -4.7666624188423157e-01 6.0209214687347412e-02</leafValues></_>
    <_>
      <internalNodes>
        0 -1 436 1.1308553069829941e-01</internalNodes>
      <leafValues>
        -9.6821181476116180e-02 3.3817178010940552e-01</leafValues></_>
    <_>
      <internalNodes>
        0 -1 30 1.0387673974037170e-01</internalNodes>
      <leafValues>
        -8.3552211523056030e-02 3.0407753586769104e-01</leafValues></_>
    <_>
      <internalNodes>
        0 -1 34 7.7596399933099747e-05</internalNodes>
      <leafValues>
        -6.0187262296676636e-01 5.4010517895221710e-02</leafValues></_>
    <_>
      <internalNodes>
        0 -1 324 3.0505131930112839e-02</internalNodes>
      <leafValues>
        4.0379062294960022e-02 -5.5155897140502930e-01</leafValues></_>
    <_>
      <internalNodes>
        0 -1 4 1.5259914100170135e-02</internalNodes>
      <leafValues>
        2.4473346769809723e-01 -1.1548142880201340e-01</leafValues></_>
    <_>
      <internalNodes>
        0 -1 147 3.0175514519214630e-02</internalNodes>
      <leafValues>
        -2.5060486793518066e-01 1.1665364354848862e-01</leafValues></_>
    <_>
      <internalNodes>
        0 -1 248 1.5057928860187531e-02</internalNodes>
      <leafValues>
        -1.9557425379753113e-01 1.6944333910942078e-01</leafValues></_>
    <_>
      <internalNodes>
        0 -1 286 3.5898369969800115e-04</internalNodes>
      <leafValues>
        3.3821523189544678e-01 -8.9799545705318451e-02</leafValues></_>
    <_>
      <internalNodes>
        0 -1 571 7.6713979244232178e-02</internalNodes>
      <leafValues>
        7.3941953480243683e-02 -4.5303258299827576e-01</leafValues></_>
    <_>
      <internalNodes>
        0 -1 419 2.4804573506116867e-02</internalNodes>
      <leafValues>
        8.2147829234600067e-02 -3.2858204841613770e-01</leafValues></_>
    <_>
      <internalNodes>
        0 -1 383 3.1712509691715240e-02</internalNodes>
      <leafValues>
        -1.0133207589387894e-01 3.3487969636917114e-01</leafValues></_>
    <_>
      <internalNodes>
        0 -1 0 1.1383658275008202e-02</internalNodes>
      <leafValues>
        -3.1504738330841064e-01 9.7930990159511566e-02</leafValues></_>
    <_>
      <internalNodes>
        0 -1 8 2.7430310845375061e-02</internalNodes>
      <leafValues>
        1.4598818123340607e-01 -2.0893153548240662e-01</leafValues></_>
    <_>
      <internalNodes>
        0 -1 570 4.4901981949806213e-02</internalNodes>
      <leafValues>
        -2.1917217969894409e-01 1.5005183219909668e-01</leafValues></_>
    <_>
      <internalNodes>
        0 -1 480 5.8065865188837051e-02</internalNodes>
      <leafValues>
        7.2808854281902313e-02 -3.9825627207756042e-01</leafValues></_>
    <_>
      <internalNodes>
        0 -1 398 4.1250299662351608e-02</internalNodes>
      <leafValues>
        3.9357434958219528e-02 -6.4160537719726562e-01</leafValues></_>
    <_>
      <internalNodes>
        0 -1 6 1.0493349283933640e-02</internalNodes>
      <leafValues>
        1.5137876570224762e-01 -1.6341596841812134e-01</leafValues></_>
    <_>
      <internalNodes>
        0 -1 98 1.2846961617469788e-02</internalNodes>
      <leafValues>
        -2.6686841249465942e-01 9.7098737955093384e-02</leafValues></_>
    <_>
      <internalNodes>
        0 -1 62 1.0675782710313797e-01</internalNodes>
      <leafValues>
        3.7198092788457870e-02 -6.9641822576522827e-01</leafValues></_></weakClassifiers></stage9>
</opencv_storage>
