<?xml version="1.0"?>
<opencv_storage>
<stage2>
  <maxWeakCount>10</maxWeakCount>
  <stageThreshold>-2.0535888671875000e+00</stageThreshold>
  <weakClassifiers>
    <_>
      <internalNodes>
        0 -1 497 1.8061881884932518e-02</internalNodes>
      <leafValues>
        -7.5477510690689087e-01 -8.9443996548652649e-02</leafValues></_>
    <_>
      <internalNodes>
        0 -1 309 3.5876773297786713e-02</internalNodes>
      <leafValues>
        -6.9076079130172729e-01 2.1951928734779358e-01</leafValues></_>
    <_>
      <internalNodes>
        0 -1 36 9.7844004631042480e-03</internalNodes>
      <leafValues>
        -7.1046423912048340e-01 2.4137879908084869e-01</leafValues></_>
    <_>
      <internalNodes>
        0 -1 571 7.6888643205165863e-02</internalNodes>
      <leafValues>
        2.5883334875106812e-01 -7.2395884990692139e-01</leafValues></_>
    <_>
      <internalNodes>
        0 -1 139 8.0410882830619812e-02</internalNodes>
      <leafValues>
        -5.7776373624801636e-01 3.3508947491645813e-01</leafValues></_>
    <_>
      <internalNodes>
        0 -1 134 5.3778626024723053e-03</internalNodes>
      <leafValues>
        -6.5019786357879639e-01 1.7922246456146240e-01</leafValues></_>
    <_>
      <internalNodes>
        0 -1 489 4.3728590011596680e-02</internalNodes>
      <leafValues>
        -5.3626459836959839e-01 2.5896686315536499e-01</leafValues></_>
    <_>
      <internalNodes>
        0 -1 156 2.2696975618600845e-02</internalNodes>
      <leafValues>
        -6.5641647577285767e-01 1.8733043968677521e-01</leafValues></_>
    <_>
      <internalNodes>
        0 -1 517 9.3842402100563049e-02</internalNodes>
      <leafValues>
        1.3438913226127625e-01 -9.2884141206741333e-01</leafValues></_>
    <_>
      <internalNodes>
        0 -1 426 7.9076170921325684e-02</internalNodes>
      <leafValues>
        -3.8367685675621033e-01 3.4292402863502502e-01</leafValues></_></weakClassifiers></stage2>
</opencv_storage>
