<?xml version="1.0"?>
<opencv_storage>
<cascade>
  <stageType>BOOST</stageType>
  <featureType>HAAR</featureType>
  <height>48</height>
  <width>64</width>
  <stageParams>
    <boostType>GAB</boostType>
    <minHitRate>9.9900001287460327e-01</minHitRate>
    <maxFalseAlarm>5.0000000000000000e-01</maxFalseAlarm>
    <weightTrimRate>9.4999999999999996e-01</weightTrimRate>
    <maxDepth>1</maxDepth>
    <maxWeakCount>100</maxWeakCount></stageParams>
  <featureParams>
    <maxCatCount>0</maxCatCount>
    <featSize>1</featSize>
    <mode>ALL</mode></featureParams>
  <stageNum>20</stageNum>
  <stages>
    <!-- stage 0 -->
    <_>
      <maxWeakCount>2</maxWeakCount>
      <stageThreshold>-3.2313761115074158e-01</stageThreshold>
      <weakClassifiers>
        <_>
          <internalNodes>
            0 -1 8 -8.6449664086103439e-03</internalNodes>
          <leafValues>
            4.3859648704528809e-01 -9.4736844301223755e-01</leafValues></_>
        <_>
          <internalNodes>
            0 -1 14 -3.5408423282206059e-03</internalNodes>
          <leafValues>
            6.2438005208969116e-01 -7.6173412799835205e-01</leafValues></_></weakClassifiers></_>
    <!-- stage 1 -->
    <_>
      <maxWeakCount>2</maxWeakCount>
      <stageThreshold>-1.5497115254402161e-01</stageThreshold>
      <weakClassifiers>
        <_>
          <internalNodes>
            0 -1 13 4.7813318669795990e-03</internalNodes>
          <leafValues>
            -6.8224298954010010e-01 1.</leafValues></_>
        <_>
          <internalNodes>
            0 -1 12 -2.3505801800638437e-03</internalNodes>
          <leafValues>
            -9.5552527904510498e-01 5.2727186679840088e-01</leafValues></_></weakClassifiers></_>
    <!-- stage 2 -->
    <_>
      <maxWeakCount>3</maxWeakCount>
      <stageThreshold>-9.4299435615539551e-01</stageThreshold>
      <weakClassifiers>
        <_>
          <internalNodes>
            0 -1 11 -3.2446957193315029e-03</internalNodes>
          <leafValues>
            -8.7500000000000000e-01 1.</leafValues></_>
        <_>
          <internalNodes>
            0 -1 7 -1.8311423482373357e-03</internalNodes>
          <leafValues>
            -5.8672392368316650e-01 1.</leafValues></_>
        <_>
          <internalNodes>
            0 -1 6 -8.1233744276687503e-04</internalNodes>
          <leafValues>
            -9.7972506284713745e-01 5.1872950792312622e-01</leafValues></_></weakClassifiers></_>
    <!-- stage 3 -->
    <_>
      <maxWeakCount>100</maxWeakCount>
      <stageThreshold>-1.7005987167358398e+00</stageThreshold>
      <weakClassifiers>
        <_>
          <internalNodes>
            0 -1 5 -2.4506412446498871e-03</internalNodes>
          <leafValues>
            -9.3548387289047241e-01 1.</leafValues></_>
        <_>
          <internalNodes>
            0 -1 5 -2.4506412446498871e-03</internalNodes>
          <leafValues>
            -6.4407980442047119e-01 1.</leafValues></_>
        <_>
          <internalNodes>
            0 -1 5 -2.4506412446498871e-03</internalNodes>
          <leafValues>
            -1.2044740468263626e-01 1.</leafValues></_>
        <_>
          <internalNodes>
            0 -1 5 -2.4506412446498871e-03</internalNodes>
          <leafValues>
            -5.8758992236107588e-04 1.</leafValues></_>
        <_>
          <internalNodes>
            0 -1 1 -1.2443612795323133e-03</internalNodes>
          <leafValues>
            -6.7624891797457565e-11 -6.7624919553033180e-11</leafValues></_>
        <_>
          <internalNodes>
            0 -1 4 3.3067979529732838e-05</internalNodes>
          <leafValues>
            7.4482624606945222e-17 -4.4689574764167133e-16</leafValues></_>
        <_>
          <internalNodes>
            0 -1 4 3.3067979529732838e-05</internalNodes>
          <leafValues>
            -3.2719151628847671e-16 5.1073799730476724e-16</leafValues></_>
        <_>
          <internalNodes>
            0 -1 2 -5.3355947602540255e-04</internalNodes>
          <leafValues>
            4.2827507825504523e-16 -6.9162437135020564e-17</leafValues></_>
        <_>
          <internalNodes>
            0 -1 10 3.2442802330479026e-04</internalNodes>
          <leafValues>
            -8.1398865673469318e-16 -2.1280749887698635e-17</leafValues></_>
        <_>
          <internalNodes>
            0 -1 9 1.7296974547207355e-03</internalNodes>
          <leafValues>
            3.7640325702122470e-16 5.9586099685556178e-16</leafValues></_>
        <_>
          <internalNodes>
            0 -1 3 -5.7618347927927971e-03</internalNodes>
          <leafValues>
            3.1921124831547952e-17 -2.8196993601200691e-16</leafValues></_>
        <_>
          <internalNodes>
            0 -1 3 -5.7618347927927971e-03</internalNodes>
          <leafValues>
            3.1921124831547952e-17 -1.9152674898928771e-16</leafValues></_>
        <_>
          <internalNodes>
            0 -1 0 -1.0563954710960388e-03</internalNodes>
          <leafValues>
            3.1921124831547952e-17 2.6600937359623294e-17</leafValues></_>
        <_>
          <internalNodes>
            0 -1 0 -1.0563954710960388e-03</internalNodes>
          <leafValues>
            3.1921124831547952e-17 2.6600937359623294e-17</leafValues></_>
        <_>
          <internalNodes>
            0 -1 0 -1.0563954710960388e-03</internalNodes>
          <leafValues>
            3.1921124831547952e-17 2.6600937359623294e-17</leafValues></_>
        <_>
          <internalNodes>
            0 -1 0 -1.0563954710960388e-03</internalNodes>
          <leafValues>
            3.1921124831547952e-17 2.6600937359623294e-17</leafValues></_>
        <_>
          <internalNodes>
            0 -1 0 -1.0563954710960388e-03</internalNodes>
          <leafValues>
            3.1921124831547952e-17 2.6600937359623294e-17</leafValues></_>
        <_>
          <internalNodes>
            0 -1 0 -1.0563954710960388e-03</internalNodes>
          <leafValues>
            3.1921124831547952e-17 2.6600937359623294e-17</leafValues></_>
        <_>
          <internalNodes>
            0 -1 0 -1.0563954710960388e-03</internalNodes>
          <leafValues>
            3.1921124831547952e-17 2.6600937359623294e-17</leafValues></_>
        <_>
          <internalNodes>
            0 -1 0 -1.0563954710960388e-03</internalNodes>
          <leafValues>
            3.1921124831547952e-17 2.6600937359623294e-17</leafValues></_>
        <_>
          <internalNodes>
            0 -1 0 -1.0563954710960388e-03</internalNodes>
          <leafValues>
            3.1921124831547952e-17 2.6600937359623294e-17</leafValues></_>
        <_>
          <internalNodes>
            0 -1 0 -1.0563954710960388e-03</internalNodes>
          <leafValues>
            3.1921124831547952e-17 2.6600937359623294e-17</leafValues></_>
        <_>
          <internalNodes>
            0 -1 0 -1.0563954710960388e-03</internalNodes>
          <leafValues>
            3.1921124831547952e-17 2.6600937359623294e-17</leafValues></_>
        <_>
          <internalNodes>
            0 -1 0 -1.0563954710960388e-03</internalNodes>
          <leafValues>
            3.1921124831547952e-17 2.6600937359623294e-17</leafValues></_>
        <_>
          <internalNodes>
            0 -1 0 -1.0563954710960388e-03</internalNodes>
          <leafValues>
            3.1921124831547952e-17 2.6600937359623294e-17</leafValues></_>
        <_>
          <internalNodes>
            0 -1 0 -1.0563954710960388e-03</internalNodes>
          <leafValues>
            3.1921124831547952e-17 2.6600937359623294e-17</leafValues></_>
        <_>
          <internalNodes>
            0 -1 0 -1.0563954710960388e-03</internalNodes>
          <leafValues>
            3.1921124831547952e-17 2.6600937359623294e-17</leafValues></_>
        <_>
          <internalNodes>
            0 -1 0 -1.0563954710960388e-03</internalNodes>
          <leafValues>
            3.1921124831547952e-17 2.6600937359623294e-17</leafValues></_>
        <_>
          <internalNodes>
            0 -1 0 -1.0563954710960388e-03</internalNodes>
          <leafValues>
            3.1921124831547952e-17 2.6600937359623294e-17</leafValues></_>
        <_>
          <internalNodes>
            0 -1 0 -1.0563954710960388e-03</internalNodes>
          <leafValues>
            3.1921124831547952e-17 2.6600937359623294e-17</leafValues></_>
        <_>
          <internalNodes>
            0 -1 0 -1.0563954710960388e-03</internalNodes>
          <leafValues>
            3.1921124831547952e-17 2.6600937359623294e-17</leafValues></_>
        <_>
          <internalNodes>
            0 -1 0 -1.0563954710960388e-03</internalNodes>
          <leafValues>
            3.1921124831547952e-17 2.6600937359623294e-17</leafValues></_>
        <_>
          <internalNodes>
            0 -1 0 -1.0563954710960388e-03</internalNodes>
          <leafValues>
            3.1921124831547952e-17 2.6600937359623294e-17</leafValues></_>
        <_>
          <internalNodes>
            0 -1 0 -1.0563954710960388e-03</internalNodes>
          <leafValues>
            3.1921124831547952e-17 2.6600937359623294e-17</leafValues></_>
        <_>
          <internalNodes>
            0 -1 0 -1.0563954710960388e-03</internalNodes>
          <leafValues>
            3.1921124831547952e-17 2.6600937359623294e-17</leafValues></_>
        <_>
          <internalNodes>
            0 -1 0 -1.0563954710960388e-03</internalNodes>
          <leafValues>
            3.1921124831547952e-17 2.6600937359623294e-17</leafValues></_>
        <_>
          <internalNodes>
            0 -1 0 -1.0563954710960388e-03</internalNodes>
          <leafValues>
            3.1921124831547952e-17 2.6600937359623294e-17</leafValues></_>
        <_>
          <internalNodes>
            0 -1 0 -1.0563954710960388e-03</internalNodes>
          <leafValues>
            3.1921124831547952e-17 2.6600937359623294e-17</leafValues></_>
        <_>
          <internalNodes>
            0 -1 0 -1.0563954710960388e-03</internalNodes>
          <leafValues>
            3.1921124831547952e-17 2.6600937359623294e-17</leafValues></_>
        <_>
          <internalNodes>
            0 -1 0 -1.0563954710960388e-03</internalNodes>
          <leafValues>
            3.1921124831547952e-17 2.6600937359623294e-17</leafValues></_>
        <_>
          <internalNodes>
            0 -1 0 -1.0563954710960388e-03</internalNodes>
          <leafValues>
            3.1921124831547952e-17 2.6600937359623294e-17</leafValues></_>
        <_>
          <internalNodes>
            0 -1 0 -1.0563954710960388e-03</internalNodes>
          <leafValues>
            3.1921124831547952e-17 2.6600937359623294e-17</leafValues></_>
        <_>
          <internalNodes>
            0 -1 0 -1.0563954710960388e-03</internalNodes>
          <leafValues>
            3.1921124831547952e-17 2.6600937359623294e-17</leafValues></_>
        <_>
          <internalNodes>
            0 -1 0 -1.0563954710960388e-03</internalNodes>
          <leafValues>
            3.1921124831547952e-17 2.6600937359623294e-17</leafValues></_>
        <_>
          <internalNodes>
            0 -1 0 -1.0563954710960388e-03</internalNodes>
          <leafValues>
            3.1921124831547952e-17 2.6600937359623294e-17</leafValues></_>
        <_>
          <internalNodes>
            0 -1 0 -1.0563954710960388e-03</internalNodes>
          <leafValues>
            3.1921124831547952e-17 2.6600937359623294e-17</leafValues></_>
        <_>
          <internalNodes>
            0 -1 0 -1.0563954710960388e-03</internalNodes>
          <leafValues>
            3.1921124831547952e-17 2.6600937359623294e-17</leafValues></_>
        <_>
          <internalNodes>
            0 -1 0 -1.0563954710960388e-03</internalNodes>
          <leafValues>
            3.1921124831547952e-17 2.6600937359623294e-17</leafValues></_>
        <_>
          <internalNodes>
            0 -1 0 -1.0563954710960388e-03</internalNodes>
          <leafValues>
            3.1921124831547952e-17 2.6600937359623294e-17</leafValues></_>
        <_>
          <internalNodes>
            0 -1 0 -1.0563954710960388e-03</internalNodes>
          <leafValues>
            3.1921124831547952e-17 2.6600937359623294e-17</leafValues></_>
        <_>
          <internalNodes>
            0 -1 0 -1.0563954710960388e-03</internalNodes>
          <leafValues>
            3.1921124831547952e-17 2.6600937359623294e-17</leafValues></_>
        <_>
          <internalNodes>
            0 -1 0 -1.0563954710960388e-03</internalNodes>
          <leafValues>
            3.1921124831547952e-17 2.6600937359623294e-17</leafValues></_>
        <_>
          <internalNodes>
            0 -1 0 -1.0563954710960388e-03</internalNodes>
          <leafValues>
            3.1921124831547952e-17 2.6600937359623294e-17</leafValues></_>
        <_>
          <internalNodes>
            0 -1 0 -1.0563954710960388e-03</internalNodes>
          <leafValues>
            3.1921124831547952e-17 2.6600937359623294e-17</leafValues></_>
        <_>
          <internalNodes>
            0 -1 0 -1.0563954710960388e-03</internalNodes>
          <leafValues>
            3.1921124831547952e-17 2.6600937359623294e-17</leafValues></_>
        <_>
          <internalNodes>
            0 -1 0 -1.0563954710960388e-03</internalNodes>
          <leafValues>
            3.1921124831547952e-17 2.6600937359623294e-17</leafValues></_>
        <_>
          <internalNodes>
            0 -1 0 -1.0563954710960388e-03</internalNodes>
          <leafValues>
            3.1921124831547952e-17 2.6600937359623294e-17</leafValues></_>
        <_>
          <internalNodes>
            0 -1 0 -1.0563954710960388e-03</internalNodes>
          <leafValues>
            3.1921124831547952e-17 2.6600937359623294e-17</leafValues></_>
        <_>
          <internalNodes>
            0 -1 0 -1.0563954710960388e-03</internalNodes>
          <leafValues>
            3.1921124831547952e-17 2.6600937359623294e-17</leafValues></_>
        <_>
          <internalNodes>
            0 -1 0 -1.0563954710960388e-03</internalNodes>
          <leafValues>
            3.1921124831547952e-17 2.6600937359623294e-17</leafValues></_>
        <_>
          <internalNodes>
            0 -1 0 -1.0563954710960388e-03</internalNodes>
          <leafValues>
            3.1921124831547952e-17 2.6600937359623294e-17</leafValues></_>
        <_>
          <internalNodes>
            0 -1 0 -1.0563954710960388e-03</internalNodes>
          <leafValues>
            3.1921124831547952e-17 2.6600937359623294e-17</leafValues></_>
        <_>
          <internalNodes>
            0 -1 0 -1.0563954710960388e-03</internalNodes>
          <leafValues>
            3.1921124831547952e-17 2.6600937359623294e-17</leafValues></_>
        <_>
          <internalNodes>
            0 -1 0 -1.0563954710960388e-03</internalNodes>
          <leafValues>
            3.1921124831547952e-17 2.6600937359623294e-17</leafValues></_>
        <_>
          <internalNodes>
            0 -1 0 -1.0563954710960388e-03</internalNodes>
          <leafValues>
            3.1921124831547952e-17 2.6600937359623294e-17</leafValues></_>
        <_>
          <internalNodes>
            0 -1 0 -1.0563954710960388e-03</internalNodes>
          <leafValues>
            3.1921124831547952e-17 2.6600937359623294e-17</leafValues></_>
        <_>
          <internalNodes>
            0 -1 0 -1.0563954710960388e-03</internalNodes>
          <leafValues>
            3.1921124831547952e-17 2.6600937359623294e-17</leafValues></_>
        <_>
          <internalNodes>
            0 -1 0 -1.0563954710960388e-03</internalNodes>
          <leafValues>
            3.1921124831547952e-17 2.6600937359623294e-17</leafValues></_>
        <_>
          <internalNodes>
            0 -1 0 -1.0563954710960388e-03</internalNodes>
          <leafValues>
            3.1921124831547952e-17 2.6600937359623294e-17</leafValues></_>
        <_>
          <internalNodes>
            0 -1 0 -1.0563954710960388e-03</internalNodes>
          <leafValues>
            3.1921124831547952e-17 2.6600937359623294e-17</leafValues></_>
        <_>
          <internalNodes>
            0 -1 0 -1.0563954710960388e-03</internalNodes>
          <leafValues>
            3.1921124831547952e-17 2.6600937359623294e-17</leafValues></_>
        <_>
          <internalNodes>
            0 -1 0 -1.0563954710960388e-03</internalNodes>
          <leafValues>
            3.1921124831547952e-17 2.6600937359623294e-17</leafValues></_>
        <_>
          <internalNodes>
            0 -1 0 -1.0563954710960388e-03</internalNodes>
          <leafValues>
            3.1921124831547952e-17 2.6600937359623294e-17</leafValues></_>
        <_>
          <internalNodes>
            0 -1 0 -1.0563954710960388e-03</internalNodes>
          <leafValues>
            3.1921124831547952e-17 2.6600937359623294e-17</leafValues></_>
        <_>
          <internalNodes>
            0 -1 0 -1.0563954710960388e-03</internalNodes>
          <leafValues>
            3.1921124831547952e-17 2.6600937359623294e-17</leafValues></_>
        <_>
          <internalNodes>
            0 -1 0 -1.0563954710960388e-03</internalNodes>
          <leafValues>
            3.1921124831547952e-17 2.6600937359623294e-17</leafValues></_>
        <_>
          <internalNodes>
            0 -1 0 -1.0563954710960388e-03</internalNodes>
          <leafValues>
            3.1921124831547952e-17 2.6600937359623294e-17</leafValues></_>
        <_>
          <internalNodes>
            0 -1 0 -1.0563954710960388e-03</internalNodes>
          <leafValues>
            3.1921124831547952e-17 2.6600937359623294e-17</leafValues></_>
        <_>
          <internalNodes>
            0 -1 0 -1.0563954710960388e-03</internalNodes>
          <leafValues>
            3.1921124831547952e-17 2.6600937359623294e-17</leafValues></_>
        <_>
          <internalNodes>
            0 -1 0 -1.0563954710960388e-03</internalNodes>
          <leafValues>
            3.1921124831547952e-17 2.6600937359623294e-17</leafValues></_>
        <_>
          <internalNodes>
            0 -1 0 -1.0563954710960388e-03</internalNodes>
          <leafValues>
            3.1921124831547952e-17 2.6600937359623294e-17</leafValues></_>
        <_>
          <internalNodes>
            0 -1 0 -1.0563954710960388e-03</internalNodes>
          <leafValues>
            3.1921124831547952e-17 2.6600937359623294e-17</leafValues></_>
        <_>
          <internalNodes>
            0 -1 0 -1.0563954710960388e-03</internalNodes>
          <leafValues>
            3.1921124831547952e-17 2.6600937359623294e-17</leafValues></_>
        <_>
          <internalNodes>
            0 -1 0 -1.0563954710960388e-03</internalNodes>
          <leafValues>
            3.1921124831547952e-17 2.6600937359623294e-17</leafValues></_>
        <_>
          <internalNodes>
            0 -1 0 -1.0563954710960388e-03</internalNodes>
          <leafValues>
            3.1921124831547952e-17 2.6600937359623294e-17</leafValues></_>
        <_>
          <internalNodes>
            0 -1 0 -1.0563954710960388e-03</internalNodes>
          <leafValues>
            3.1921124831547952e-17 2.6600937359623294e-17</leafValues></_>
        <_>
          <internalNodes>
            0 -1 0 -1.0563954710960388e-03</internalNodes>
          <leafValues>
            3.1921124831547952e-17 2.6600937359623294e-17</leafValues></_>
        <_>
          <internalNodes>
            0 -1 0 -1.0563954710960388e-03</internalNodes>
          <leafValues>
            3.1921124831547952e-17 2.6600937359623294e-17</leafValues></_>
        <_>
          <internalNodes>
            0 -1 0 -1.0563954710960388e-03</internalNodes>
          <leafValues>
            3.1921124831547952e-17 2.6600937359623294e-17</leafValues></_>
        <_>
          <internalNodes>
            0 -1 0 -1.0563954710960388e-03</internalNodes>
          <leafValues>
            3.1921124831547952e-17 2.6600937359623294e-17</leafValues></_>
        <_>
          <internalNodes>
            0 -1 0 -1.0563954710960388e-03</internalNodes>
          <leafValues>
            3.1921124831547952e-17 2.6600937359623294e-17</leafValues></_>
        <_>
          <internalNodes>
            0 -1 0 -1.0563954710960388e-03</internalNodes>
          <leafValues>
            3.1921124831547952e-17 2.6600937359623294e-17</leafValues></_>
        <_>
          <internalNodes>
            0 -1 0 -1.0563954710960388e-03</internalNodes>
          <leafValues>
            3.1921124831547952e-17 2.6600937359623294e-17</leafValues></_>
        <_>
          <internalNodes>
            0 -1 0 -1.0563954710960388e-03</internalNodes>
          <leafValues>
            3.1921124831547952e-17 2.6600937359623294e-17</leafValues></_>
        <_>
          <internalNodes>
            0 -1 0 -1.0563954710960388e-03</internalNodes>
          <leafValues>
            3.1921124831547952e-17 2.6600937359623294e-17</leafValues></_>
        <_>
          <internalNodes>
            0 -1 0 -1.0563954710960388e-03</internalNodes>
          <leafValues>
            3.1921124831547952e-17 2.6600937359623294e-17</leafValues></_>
        <_>
          <internalNodes>
            0 -1 0 -1.0563954710960388e-03</internalNodes>
          <leafValues>
            3.1921124831547952e-17 2.6600937359623294e-17</leafValues></_>
        <_>
          <internalNodes>
            0 -1 0 -1.0563954710960388e-03</internalNodes>
          <leafValues>
            3.1921124831547952e-17 2.6600937359623294e-17</leafValues></_>
        <_>
          <internalNodes>
            0 -1 0 -1.0563954710960388e-03</internalNodes>
          <leafValues>
            3.1921124831547952e-17 2.6600937359623294e-17</leafValues></_>
        <_>
          <internalNodes>
            0 -1 0 -1.0563954710960388e-03</internalNodes>
          <leafValues>
            3.1921124831547952e-17 2.6600937359623294e-17</leafValues></_></weakClassifiers></_>
    <!-- stage 4 -->
    <_>
      <maxWeakCount>100</maxWeakCount>
      <stageThreshold>-1.7005987167358398e+00</stageThreshold>
      <weakClassifiers>
        <_>
          <internalNodes>
            0 -1 5 -2.4506412446498871e-03</internalNodes>
          <leafValues>
            -9.3548387289047241e-01 1.</leafValues></_>
        <_>
          <internalNodes>
            0 -1 5 -2.4506412446498871e-03</internalNodes>
          <leafValues>
            -6.4407980442047119e-01 1.</leafValues></_>
        <_>
          <internalNodes>
            0 -1 5 -2.4506412446498871e-03</internalNodes>
          <leafValues>
            -1.2044740468263626e-01 1.</leafValues></_>
        <_>
          <internalNodes>
            0 -1 5 -2.4506412446498871e-03</internalNodes>
          <leafValues>
            -5.8758992236107588e-04 1.</leafValues></_>
        <_>
          <internalNodes>
            0 -1 1 -1.2443612795323133e-03</internalNodes>
          <leafValues>
            -6.7624891797457565e-11 -6.7624919553033180e-11</leafValues></_>
        <_>
          <internalNodes>
            0 -1 4 3.3067979529732838e-05</internalNodes>
          <leafValues>
            7.4482624606945222e-17 -4.4689574764167133e-16</leafValues></_>
        <_>
          <internalNodes>
            0 -1 4 3.3067979529732838e-05</internalNodes>
          <leafValues>
            -3.2719151628847671e-16 5.1073799730476724e-16</leafValues></_>
        <_>
          <internalNodes>
            0 -1 2 -5.3355947602540255e-04</internalNodes>
          <leafValues>
            4.2827507825504523e-16 -6.9162437135020564e-17</leafValues></_>
        <_>
          <internalNodes>
            0 -1 10 3.2442802330479026e-04</internalNodes>
          <leafValues>
            -8.1398865673469318e-16 -2.1280749887698635e-17</leafValues></_>
        <_>
          <internalNodes>
            0 -1 9 1.7296974547207355e-03</internalNodes>
          <leafValues>
            3.7640325702122470e-16 5.9586099685556178e-16</leafValues></_>
        <_>
          <internalNodes>
            0 -1 3 -5.7618347927927971e-03</internalNodes>
          <leafValues>
            3.1921124831547952e-17 -2.8196993601200691e-16</leafValues></_>
        <_>
          <internalNodes>
            0 -1 3 -5.7618347927927971e-03</internalNodes>
          <leafValues>
            3.1921124831547952e-17 -1.9152674898928771e-16</leafValues></_>
        <_>
          <internalNodes>
            0 -1 0 -1.0563954710960388e-03</internalNodes>
          <leafValues>
            3.1921124831547952e-17 2.6600937359623294e-17</leafValues></_>
        <_>
          <internalNodes>
            0 -1 0 -1.0563954710960388e-03</internalNodes>
          <leafValues>
            3.1921124831547952e-17 2.6600937359623294e-17</leafValues></_>
        <_>
          <internalNodes>
            0 -1 0 -1.0563954710960388e-03</internalNodes>
          <leafValues>
            3.1921124831547952e-17 2.6600937359623294e-17</leafValues></_>
        <_>
          <internalNodes>
            0 -1 0 -1.0563954710960388e-03</internalNodes>
          <leafValues>
            3.1921124831547952e-17 2.6600937359623294e-17</leafValues></_>
        <_>
          <internalNodes>
            0 -1 0 -1.0563954710960388e-03</internalNodes>
          <leafValues>
            3.1921124831547952e-17 2.6600937359623294e-17</leafValues></_>
        <_>
          <internalNodes>
            0 -1 0 -1.0563954710960388e-03</internalNodes>
          <leafValues>
            3.1921124831547952e-17 2.6600937359623294e-17</leafValues></_>
        <_>
          <internalNodes>
            0 -1 0 -1.0563954710960388e-03</internalNodes>
          <leafValues>
            3.1921124831547952e-17 2.6600937359623294e-17</leafValues></_>
        <_>
          <internalNodes>
            0 -1 0 -1.0563954710960388e-03</internalNodes>
          <leafValues>
            3.1921124831547952e-17 2.6600937359623294e-17</leafValues></_>
        <_>
          <internalNodes>
            0 -1 0 -1.0563954710960388e-03</internalNodes>
          <leafValues>
            3.1921124831547952e-17 2.6600937359623294e-17</leafValues></_>
        <_>
          <internalNodes>
            0 -1 0 -1.0563954710960388e-03</internalNodes>
          <leafValues>
            3.1921124831547952e-17 2.6600937359623294e-17</leafValues></_>
        <_>
          <internalNodes>
            0 -1 0 -1.0563954710960388e-03</internalNodes>
          <leafValues>
            3.1921124831547952e-17 2.6600937359623294e-17</leafValues></_>
        <_>
          <internalNodes>
            0 -1 0 -1.0563954710960388e-03</internalNodes>
          <leafValues>
            3.1921124831547952e-17 2.6600937359623294e-17</leafValues></_>
        <_>
          <internalNodes>
            0 -1 0 -1.0563954710960388e-03</internalNodes>
          <leafValues>
            3.1921124831547952e-17 2.6600937359623294e-17</leafValues></_>
        <_>
          <internalNodes>
            0 -1 0 -1.0563954710960388e-03</internalNodes>
          <leafValues>
            3.1921124831547952e-17 2.6600937359623294e-17</leafValues></_>
        <_>
          <internalNodes>
            0 -1 0 -1.0563954710960388e-03</internalNodes>
          <leafValues>
            3.1921124831547952e-17 2.6600937359623294e-17</leafValues></_>
        <_>
          <internalNodes>
            0 -1 0 -1.0563954710960388e-03</internalNodes>
          <leafValues>
            3.1921124831547952e-17 2.6600937359623294e-17</leafValues></_>
        <_>
          <internalNodes>
            0 -1 0 -1.0563954710960388e-03</internalNodes>
          <leafValues>
            3.1921124831547952e-17 2.6600937359623294e-17</leafValues></_>
        <_>
          <internalNodes>
            0 -1 0 -1.0563954710960388e-03</internalNodes>
          <leafValues>
            3.1921124831547952e-17 2.6600937359623294e-17</leafValues></_>
        <_>
          <internalNodes>
            0 -1 0 -1.0563954710960388e-03</internalNodes>
          <leafValues>
            3.1921124831547952e-17 2.6600937359623294e-17</leafValues></_>
        <_>
          <internalNodes>
            0 -1 0 -1.0563954710960388e-03</internalNodes>
          <leafValues>
            3.1921124831547952e-17 2.6600937359623294e-17</leafValues></_>
        <_>
          <internalNodes>
            0 -1 0 -1.0563954710960388e-03</internalNodes>
          <leafValues>
            3.1921124831547952e-17 2.6600937359623294e-17</leafValues></_>
        <_>
          <internalNodes>
            0 -1 0 -1.0563954710960388e-03</internalNodes>
          <leafValues>
            3.1921124831547952e-17 2.6600937359623294e-17</leafValues></_>
        <_>
          <internalNodes>
            0 -1 0 -1.0563954710960388e-03</internalNodes>
          <leafValues>
            3.1921124831547952e-17 2.6600937359623294e-17</leafValues></_>
        <_>
          <internalNodes>
            0 -1 0 -1.0563954710960388e-03</internalNodes>
          <leafValues>
            3.1921124831547952e-17 2.6600937359623294e-17</leafValues></_>
        <_>
          <internalNodes>
            0 -1 0 -1.0563954710960388e-03</internalNodes>
          <leafValues>
            3.1921124831547952e-17 2.6600937359623294e-17</leafValues></_>
        <_>
          <internalNodes>
            0 -1 0 -1.0563954710960388e-03</internalNodes>
          <leafValues>
            3.1921124831547952e-17 2.6600937359623294e-17</leafValues></_>
        <_>
          <internalNodes>
            0 -1 0 -1.0563954710960388e-03</internalNodes>
          <leafValues>
            3.1921124831547952e-17 2.6600937359623294e-17</leafValues></_>
        <_>
          <internalNodes>
            0 -1 0 -1.0563954710960388e-03</internalNodes>
          <leafValues>
            3.1921124831547952e-17 2.6600937359623294e-17</leafValues></_>
        <_>
          <internalNodes>
            0 -1 0 -1.0563954710960388e-03</internalNodes>
          <leafValues>
            3.1921124831547952e-17 2.6600937359623294e-17</leafValues></_>
        <_>
          <internalNodes>
            0 -1 0 -1.0563954710960388e-03</internalNodes>
          <leafValues>
            3.1921124831547952e-17 2.6600937359623294e-17</leafValues></_>
        <_>
          <internalNodes>
            0 -1 0 -1.0563954710960388e-03</internalNodes>
          <leafValues>
            3.1921124831547952e-17 2.6600937359623294e-17</leafValues></_>
        <_>
          <internalNodes>
            0 -1 0 -1.0563954710960388e-03</internalNodes>
          <leafValues>
            3.1921124831547952e-17 2.6600937359623294e-17</leafValues></_>
        <_>
          <internalNodes>
            0 -1 0 -1.0563954710960388e-03</internalNodes>
          <leafValues>
            3.1921124831547952e-17 2.6600937359623294e-17</leafValues></_>
        <_>
          <internalNodes>
            0 -1 0 -1.0563954710960388e-03</internalNodes>
          <leafValues>
            3.1921124831547952e-17 2.6600937359623294e-17</leafValues></_>
        <_>
          <internalNodes>
            0 -1 0 -1.0563954710960388e-03</internalNodes>
          <leafValues>
            3.1921124831547952e-17 2.6600937359623294e-17</leafValues></_>
        <_>
          <internalNodes>
            0 -1 0 -1.0563954710960388e-03</internalNodes>
          <leafValues>
            3.1921124831547952e-17 2.6600937359623294e-17</leafValues></_>
        <_>
          <internalNodes>
            0 -1 0 -1.0563954710960388e-03</internalNodes>
          <leafValues>
            3.1921124831547952e-17 2.6600937359623294e-17</leafValues></_>
        <_>
          <internalNodes>
            0 -1 0 -1.0563954710960388e-03</internalNodes>
          <leafValues>
            3.1921124831547952e-17 2.6600937359623294e-17</leafValues></_>
        <_>
          <internalNodes>
            0 -1 0 -1.0563954710960388e-03</internalNodes>
          <leafValues>
            3.1921124831547952e-17 2.6600937359623294e-17</leafValues></_>
        <_>
          <internalNodes>
            0 -1 0 -1.0563954710960388e-03</internalNodes>
          <leafValues>
            3.1921124831547952e-17 2.6600937359623294e-17</leafValues></_>
        <_>
          <internalNodes>
            0 -1 0 -1.0563954710960388e-03</internalNodes>
          <leafValues>
            3.1921124831547952e-17 2.6600937359623294e-17</leafValues></_>
        <_>
          <internalNodes>
            0 -1 0 -1.0563954710960388e-03</internalNodes>
          <leafValues>
            3.1921124831547952e-17 2.6600937359623294e-17</leafValues></_>
        <_>
          <internalNodes>
            0 -1 0 -1.0563954710960388e-03</internalNodes>
          <leafValues>
            3.1921124831547952e-17 2.6600937359623294e-17</leafValues></_>
        <_>
          <internalNodes>
            0 -1 0 -1.0563954710960388e-03</internalNodes>
          <leafValues>
            3.1921124831547952e-17 2.6600937359623294e-17</leafValues></_>
        <_>
          <internalNodes>
            0 -1 0 -1.0563954710960388e-03</internalNodes>
          <leafValues>
            3.1921124831547952e-17 2.6600937359623294e-17</leafValues></_>
        <_>
          <internalNodes>
            0 -1 0 -1.0563954710960388e-03</internalNodes>
          <leafValues>
            3.1921124831547952e-17 2.6600937359623294e-17</leafValues></_>
        <_>
          <internalNodes>
            0 -1 0 -1.0563954710960388e-03</internalNodes>
          <leafValues>
            3.1921124831547952e-17 2.6600937359623294e-17</leafValues></_>
        <_>
          <internalNodes>
            0 -1 0 -1.0563954710960388e-03</internalNodes>
          <leafValues>
            3.1921124831547952e-17 2.6600937359623294e-17</leafValues></_>
        <_>
          <internalNodes>
            0 -1 0 -1.0563954710960388e-03</internalNodes>
          <leafValues>
            3.1921124831547952e-17 2.6600937359623294e-17</leafValues></_>
        <_>
          <internalNodes>
            0 -1 0 -1.0563954710960388e-03</internalNodes>
          <leafValues>
            3.1921124831547952e-17 2.6600937359623294e-17</leafValues></_>
        <_>
          <internalNodes>
            0 -1 0 -1.0563954710960388e-03</internalNodes>
          <leafValues>
            3.1921124831547952e-17 2.6600937359623294e-17</leafValues></_>
        <_>
          <internalNodes>
            0 -1 0 -1.0563954710960388e-03</internalNodes>
          <leafValues>
            3.1921124831547952e-17 2.6600937359623294e-17</leafValues></_>
        <_>
          <internalNodes>
            0 -1 0 -1.0563954710960388e-03</internalNodes>
          <leafValues>
            3.1921124831547952e-17 2.6600937359623294e-17</leafValues></_>
        <_>
          <internalNodes>
            0 -1 0 -1.0563954710960388e-03</internalNodes>
          <leafValues>
            3.1921124831547952e-17 2.6600937359623294e-17</leafValues></_>
        <_>
          <internalNodes>
            0 -1 0 -1.0563954710960388e-03</internalNodes>
          <leafValues>
            3.1921124831547952e-17 2.6600937359623294e-17</leafValues></_>
        <_>
          <internalNodes>
            0 -1 0 -1.0563954710960388e-03</internalNodes>
          <leafValues>
            3.1921124831547952e-17 2.6600937359623294e-17</leafValues></_>
        <_>
          <internalNodes>
            0 -1 0 -1.0563954710960388e-03</internalNodes>
          <leafValues>
            3.1921124831547952e-17 2.6600937359623294e-17</leafValues></_>
        <_>
          <internalNodes>
            0 -1 0 -1.0563954710960388e-03</internalNodes>
          <leafValues>
            3.1921124831547952e-17 2.6600937359623294e-17</leafValues></_>
        <_>
          <internalNodes>
            0 -1 0 -1.0563954710960388e-03</internalNodes>
          <leafValues>
            3.1921124831547952e-17 2.6600937359623294e-17</leafValues></_>
        <_>
          <internalNodes>
            0 -1 0 -1.0563954710960388e-03</internalNodes>
          <leafValues>
            3.1921124831547952e-17 2.6600937359623294e-17</leafValues></_>
        <_>
          <internalNodes>
            0 -1 0 -1.0563954710960388e-03</internalNodes>
          <leafValues>
            3.1921124831547952e-17 2.6600937359623294e-17</leafValues></_>
        <_>
          <internalNodes>
            0 -1 0 -1.0563954710960388e-03</internalNodes>
          <leafValues>
            3.1921124831547952e-17 2.6600937359623294e-17</leafValues></_>
        <_>
          <internalNodes>
            0 -1 0 -1.0563954710960388e-03</internalNodes>
          <leafValues>
            3.1921124831547952e-17 2.6600937359623294e-17</leafValues></_>
        <_>
          <internalNodes>
            0 -1 0 -1.0563954710960388e-03</internalNodes>
          <leafValues>
            3.1921124831547952e-17 2.6600937359623294e-17</leafValues></_>
        <_>
          <internalNodes>
            0 -1 0 -1.0563954710960388e-03</internalNodes>
          <leafValues>
            3.1921124831547952e-17 2.6600937359623294e-17</leafValues></_>
        <_>
          <internalNodes>
            0 -1 0 -1.0563954710960388e-03</internalNodes>
          <leafValues>
            3.1921124831547952e-17 2.6600937359623294e-17</leafValues></_>
        <_>
          <internalNodes>
            0 -1 0 -1.0563954710960388e-03</internalNodes>
          <leafValues>
            3.1921124831547952e-17 2.6600937359623294e-17</leafValues></_>
        <_>
          <internalNodes>
            0 -1 0 -1.0563954710960388e-03</internalNodes>
          <leafValues>
            3.1921124831547952e-17 2.6600937359623294e-17</leafValues></_>
        <_>
          <internalNodes>
            0 -1 0 -1.0563954710960388e-03</internalNodes>
          <leafValues>
            3.1921124831547952e-17 2.6600937359623294e-17</leafValues></_>
        <_>
          <internalNodes>
            0 -1 0 -1.0563954710960388e-03</internalNodes>
          <leafValues>
            3.1921124831547952e-17 2.6600937359623294e-17</leafValues></_>
        <_>
          <internalNodes>
            0 -1 0 -1.0563954710960388e-03</internalNodes>
          <leafValues>
            3.1921124831547952e-17 2.6600937359623294e-17</leafValues></_>
        <_>
          <internalNodes>
            0 -1 0 -1.0563954710960388e-03</internalNodes>
          <leafValues>
            3.1921124831547952e-17 2.6600937359623294e-17</leafValues></_>
        <_>
          <internalNodes>
            0 -1 0 -1.0563954710960388e-03</internalNodes>
          <leafValues>
            3.1921124831547952e-17 2.6600937359623294e-17</leafValues></_>
        <_>
          <internalNodes>
            0 -1 0 -1.0563954710960388e-03</internalNodes>
          <leafValues>
            3.1921124831547952e-17 2.6600937359623294e-17</leafValues></_>
        <_>
          <internalNodes>
            0 -1 0 -1.0563954710960388e-03</internalNodes>
          <leafValues>
            3.1921124831547952e-17 2.6600937359623294e-17</leafValues></_>
        <_>
          <internalNodes>
            0 -1 0 -1.0563954710960388e-03</internalNodes>
          <leafValues>
            3.1921124831547952e-17 2.6600937359623294e-17</leafValues></_>
        <_>
          <internalNodes>
            0 -1 0 -1.0563954710960388e-03</internalNodes>
          <leafValues>
            3.1921124831547952e-17 2.6600937359623294e-17</leafValues></_>
        <_>
          <internalNodes>
            0 -1 0 -1.0563954710960388e-03</internalNodes>
          <leafValues>
            3.1921124831547952e-17 2.6600937359623294e-17</leafValues></_>
        <_>
          <internalNodes>
            0 -1 0 -1.0563954710960388e-03</internalNodes>
          <leafValues>
            3.1921124831547952e-17 2.6600937359623294e-17</leafValues></_>
        <_>
          <internalNodes>
            0 -1 0 -1.0563954710960388e-03</internalNodes>
          <leafValues>
            3.1921124831547952e-17 2.6600937359623294e-17</leafValues></_>
        <_>
          <internalNodes>
            0 -1 0 -1.0563954710960388e-03</internalNodes>
          <leafValues>
            3.1921124831547952e-17 2.6600937359623294e-17</leafValues></_>
        <_>
          <internalNodes>
            0 -1 0 -1.0563954710960388e-03</internalNodes>
          <leafValues>
            3.1921124831547952e-17 2.6600937359623294e-17</leafValues></_>
        <_>
          <internalNodes>
            0 -1 0 -1.0563954710960388e-03</internalNodes>
          <leafValues>
            3.1921124831547952e-17 2.6600937359623294e-17</leafValues></_>
        <_>
          <internalNodes>
            0 -1 0 -1.0563954710960388e-03</internalNodes>
          <leafValues>
            3.1921124831547952e-17 2.6600937359623294e-17</leafValues></_>
        <_>
          <internalNodes>
            0 -1 0 -1.0563954710960388e-03</internalNodes>
          <leafValues>
            3.1921124831547952e-17 2.6600937359623294e-17</leafValues></_>
        <_>
          <internalNodes>
            0 -1 0 -1.0563954710960388e-03</internalNodes>
          <leafValues>
            3.1921124831547952e-17 2.6600937359623294e-17</leafValues></_>
        <_>
          <internalNodes>
            0 -1 0 -1.0563954710960388e-03</internalNodes>
          <leafValues>
            3.1921124831547952e-17 2.6600937359623294e-17</leafValues></_>
        <_>
          <internalNodes>
            0 -1 0 -1.0563954710960388e-03</internalNodes>
          <leafValues>
            3.1921124831547952e-17 2.6600937359623294e-17</leafValues></_></weakClassifiers></_>
    <!-- stage 5 -->
    <_>
      <maxWeakCount>100</maxWeakCount>
      <stageThreshold>-1.7005987167358398e+00</stageThreshold>
      <weakClassifiers>
        <_>
          <internalNodes>
            0 -1 5 -2.4506412446498871e-03</internalNodes>
          <leafValues>
            -9.3548387289047241e-01 1.</leafValues></_>
        <_>
          <internalNodes>
            0 -1 5 -2.4506412446498871e-03</internalNodes>
          <leafValues>
            -6.4407980442047119e-01 1.</leafValues></_>
        <_>
          <internalNodes>
            0 -1 5 -2.4506412446498871e-03</internalNodes>
          <leafValues>
            -1.2044740468263626e-01 1.</leafValues></_>
        <_>
          <internalNodes>
            0 -1 5 -2.4506412446498871e-03</internalNodes>
          <leafValues>
            -5.8758992236107588e-04 1.</leafValues></_>
        <_>
          <internalNodes>
            0 -1 1 -1.2443612795323133e-03</internalNodes>
          <leafValues>
            -6.7624891797457565e-11 -6.7624919553033180e-11</leafValues></_>
        <_>
          <internalNodes>
            0 -1 4 3.3067979529732838e-05</internalNodes>
          <leafValues>
            7.4482624606945222e-17 -4.4689574764167133e-16</leafValues></_>
        <_>
          <internalNodes>
            0 -1 4 3.3067979529732838e-05</internalNodes>
          <leafValues>
            -3.2719151628847671e-16 5.1073799730476724e-16</leafValues></_>
        <_>
          <internalNodes>
            0 -1 2 -5.3355947602540255e-04</internalNodes>
          <leafValues>
            4.2827507825504523e-16 -6.9162437135020564e-17</leafValues></_>
        <_>
          <internalNodes>
            0 -1 10 3.2442802330479026e-04</internalNodes>
          <leafValues>
            -8.1398865673469318e-16 -2.1280749887698635e-17</leafValues></_>
        <_>
          <internalNodes>
            0 -1 9 1.7296974547207355e-03</internalNodes>
          <leafValues>
            3.7640325702122470e-16 5.9586099685556178e-16</leafValues></_>
        <_>
          <internalNodes>
            0 -1 3 -5.7618347927927971e-03</internalNodes>
          <leafValues>
            3.1921124831547952e-17 -2.8196993601200691e-16</leafValues></_>
        <_>
          <internalNodes>
            0 -1 3 -5.7618347927927971e-03</internalNodes>
          <leafValues>
            3.1921124831547952e-17 -1.9152674898928771e-16</leafValues></_>
        <_>
          <internalNodes>
            0 -1 0 -1.0563954710960388e-03</internalNodes>
          <leafValues>
            3.1921124831547952e-17 2.6600937359623294e-17</leafValues></_>
        <_>
          <internalNodes>
            0 -1 0 -1.0563954710960388e-03</internalNodes>
          <leafValues>
            3.1921124831547952e-17 2.6600937359623294e-17</leafValues></_>
        <_>
          <internalNodes>
            0 -1 0 -1.0563954710960388e-03</internalNodes>
          <leafValues>
            3.1921124831547952e-17 2.6600937359623294e-17</leafValues></_>
        <_>
          <internalNodes>
            0 -1 0 -1.0563954710960388e-03</internalNodes>
          <leafValues>
            3.1921124831547952e-17 2.6600937359623294e-17</leafValues></_>
        <_>
          <internalNodes>
            0 -1 0 -1.0563954710960388e-03</internalNodes>
          <leafValues>
            3.1921124831547952e-17 2.6600937359623294e-17</leafValues></_>
        <_>
          <internalNodes>
            0 -1 0 -1.0563954710960388e-03</internalNodes>
          <leafValues>
            3.1921124831547952e-17 2.6600937359623294e-17</leafValues></_>
        <_>
          <internalNodes>
            0 -1 0 -1.0563954710960388e-03</internalNodes>
          <leafValues>
            3.1921124831547952e-17 2.6600937359623294e-17</leafValues></_>
        <_>
          <internalNodes>
            0 -1 0 -1.0563954710960388e-03</internalNodes>
          <leafValues>
            3.1921124831547952e-17 2.6600937359623294e-17</leafValues></_>
        <_>
          <internalNodes>
            0 -1 0 -1.0563954710960388e-03</internalNodes>
          <leafValues>
            3.1921124831547952e-17 2.6600937359623294e-17</leafValues></_>
        <_>
          <internalNodes>
            0 -1 0 -1.0563954710960388e-03</internalNodes>
          <leafValues>
            3.1921124831547952e-17 2.6600937359623294e-17</leafValues></_>
        <_>
          <internalNodes>
            0 -1 0 -1.0563954710960388e-03</internalNodes>
          <leafValues>
            3.1921124831547952e-17 2.6600937359623294e-17</leafValues></_>
        <_>
          <internalNodes>
            0 -1 0 -1.0563954710960388e-03</internalNodes>
          <leafValues>
            3.1921124831547952e-17 2.6600937359623294e-17</leafValues></_>
        <_>
          <internalNodes>
            0 -1 0 -1.0563954710960388e-03</internalNodes>
          <leafValues>
            3.1921124831547952e-17 2.6600937359623294e-17</leafValues></_>
        <_>
          <internalNodes>
            0 -1 0 -1.0563954710960388e-03</internalNodes>
          <leafValues>
            3.1921124831547952e-17 2.6600937359623294e-17</leafValues></_>
        <_>
          <internalNodes>
            0 -1 0 -1.0563954710960388e-03</internalNodes>
          <leafValues>
            3.1921124831547952e-17 2.6600937359623294e-17</leafValues></_>
        <_>
          <internalNodes>
            0 -1 0 -1.0563954710960388e-03</internalNodes>
          <leafValues>
            3.1921124831547952e-17 2.6600937359623294e-17</leafValues></_>
        <_>
          <internalNodes>
            0 -1 0 -1.0563954710960388e-03</internalNodes>
          <leafValues>
            3.1921124831547952e-17 2.6600937359623294e-17</leafValues></_>
        <_>
          <internalNodes>
            0 -1 0 -1.0563954710960388e-03</internalNodes>
          <leafValues>
            3.1921124831547952e-17 2.6600937359623294e-17</leafValues></_>
        <_>
          <internalNodes>
            0 -1 0 -1.0563954710960388e-03</internalNodes>
          <leafValues>
            3.1921124831547952e-17 2.6600937359623294e-17</leafValues></_>
        <_>
          <internalNodes>
            0 -1 0 -1.0563954710960388e-03</internalNodes>
          <leafValues>
            3.1921124831547952e-17 2.6600937359623294e-17</leafValues></_>
        <_>
          <internalNodes>
            0 -1 0 -1.0563954710960388e-03</internalNodes>
          <leafValues>
            3.1921124831547952e-17 2.6600937359623294e-17</leafValues></_>
        <_>
          <internalNodes>
            0 -1 0 -1.0563954710960388e-03</internalNodes>
          <leafValues>
            3.1921124831547952e-17 2.6600937359623294e-17</leafValues></_>
        <_>
          <internalNodes>
            0 -1 0 -1.0563954710960388e-03</internalNodes>
          <leafValues>
            3.1921124831547952e-17 2.6600937359623294e-17</leafValues></_>
        <_>
          <internalNodes>
            0 -1 0 -1.0563954710960388e-03</internalNodes>
          <leafValues>
            3.1921124831547952e-17 2.6600937359623294e-17</leafValues></_>
        <_>
          <internalNodes>
            0 -1 0 -1.0563954710960388e-03</internalNodes>
          <leafValues>
            3.1921124831547952e-17 2.6600937359623294e-17</leafValues></_>
        <_>
          <internalNodes>
            0 -1 0 -1.0563954710960388e-03</internalNodes>
          <leafValues>
            3.1921124831547952e-17 2.6600937359623294e-17</leafValues></_>
        <_>
          <internalNodes>
            0 -1 0 -1.0563954710960388e-03</internalNodes>
          <leafValues>
            3.1921124831547952e-17 2.6600937359623294e-17</leafValues></_>
        <_>
          <internalNodes>
            0 -1 0 -1.0563954710960388e-03</internalNodes>
          <leafValues>
            3.1921124831547952e-17 2.6600937359623294e-17</leafValues></_>
        <_>
          <internalNodes>
            0 -1 0 -1.0563954710960388e-03</internalNodes>
          <leafValues>
            3.1921124831547952e-17 2.6600937359623294e-17</leafValues></_>
        <_>
          <internalNodes>
            0 -1 0 -1.0563954710960388e-03</internalNodes>
          <leafValues>
            3.1921124831547952e-17 2.6600937359623294e-17</leafValues></_>
        <_>
          <internalNodes>
            0 -1 0 -1.0563954710960388e-03</internalNodes>
          <leafValues>
            3.1921124831547952e-17 2.6600937359623294e-17</leafValues></_>
        <_>
          <internalNodes>
            0 -1 0 -1.0563954710960388e-03</internalNodes>
          <leafValues>
            3.1921124831547952e-17 2.6600937359623294e-17</leafValues></_>
        <_>
          <internalNodes>
            0 -1 0 -1.0563954710960388e-03</internalNodes>
          <leafValues>
            3.1921124831547952e-17 2.6600937359623294e-17</leafValues></_>
        <_>
          <internalNodes>
            0 -1 0 -1.0563954710960388e-03</internalNodes>
          <leafValues>
            3.1921124831547952e-17 2.6600937359623294e-17</leafValues></_>
        <_>
          <internalNodes>
            0 -1 0 -1.0563954710960388e-03</internalNodes>
          <leafValues>
            3.1921124831547952e-17 2.6600937359623294e-17</leafValues></_>
        <_>
          <internalNodes>
            0 -1 0 -1.0563954710960388e-03</internalNodes>
          <leafValues>
            3.1921124831547952e-17 2.6600937359623294e-17</leafValues></_>
        <_>
          <internalNodes>
            0 -1 0 -1.0563954710960388e-03</internalNodes>
          <leafValues>
            3.1921124831547952e-17 2.6600937359623294e-17</leafValues></_>
        <_>
          <internalNodes>
            0 -1 0 -1.0563954710960388e-03</internalNodes>
          <leafValues>
            3.1921124831547952e-17 2.6600937359623294e-17</leafValues></_>
        <_>
          <internalNodes>
            0 -1 0 -1.0563954710960388e-03</internalNodes>
          <leafValues>
            3.1921124831547952e-17 2.6600937359623294e-17</leafValues></_>
        <_>
          <internalNodes>
            0 -1 0 -1.0563954710960388e-03</internalNodes>
          <leafValues>
            3.1921124831547952e-17 2.6600937359623294e-17</leafValues></_>
        <_>
          <internalNodes>
            0 -1 0 -1.0563954710960388e-03</internalNodes>
          <leafValues>
            3.1921124831547952e-17 2.6600937359623294e-17</leafValues></_>
        <_>
          <internalNodes>
            0 -1 0 -1.0563954710960388e-03</internalNodes>
          <leafValues>
            3.1921124831547952e-17 2.6600937359623294e-17</leafValues></_>
        <_>
          <internalNodes>
            0 -1 0 -1.0563954710960388e-03</internalNodes>
          <leafValues>
            3.1921124831547952e-17 2.6600937359623294e-17</leafValues></_>
        <_>
          <internalNodes>
            0 -1 0 -1.0563954710960388e-03</internalNodes>
          <leafValues>
            3.1921124831547952e-17 2.6600937359623294e-17</leafValues></_>
        <_>
          <internalNodes>
            0 -1 0 -1.0563954710960388e-03</internalNodes>
          <leafValues>
            3.1921124831547952e-17 2.6600937359623294e-17</leafValues></_>
        <_>
          <internalNodes>
            0 -1 0 -1.0563954710960388e-03</internalNodes>
          <leafValues>
            3.1921124831547952e-17 2.6600937359623294e-17</leafValues></_>
        <_>
          <internalNodes>
            0 -1 0 -1.0563954710960388e-03</internalNodes>
          <leafValues>
            3.1921124831547952e-17 2.6600937359623294e-17</leafValues></_>
        <_>
          <internalNodes>
            0 -1 0 -1.0563954710960388e-03</internalNodes>
          <leafValues>
            3.1921124831547952e-17 2.6600937359623294e-17</leafValues></_>
        <_>
          <internalNodes>
            0 -1 0 -1.0563954710960388e-03</internalNodes>
          <leafValues>
            3.1921124831547952e-17 2.6600937359623294e-17</leafValues></_>
        <_>
          <internalNodes>
            0 -1 0 -1.0563954710960388e-03</internalNodes>
          <leafValues>
            3.1921124831547952e-17 2.6600937359623294e-17</leafValues></_>
        <_>
          <internalNodes>
            0 -1 0 -1.0563954710960388e-03</internalNodes>
          <leafValues>
            3.1921124831547952e-17 2.6600937359623294e-17</leafValues></_>
        <_>
          <internalNodes>
            0 -1 0 -1.0563954710960388e-03</internalNodes>
          <leafValues>
            3.1921124831547952e-17 2.6600937359623294e-17</leafValues></_>
        <_>
          <internalNodes>
            0 -1 0 -1.0563954710960388e-03</internalNodes>
          <leafValues>
            3.1921124831547952e-17 2.6600937359623294e-17</leafValues></_>
        <_>
          <internalNodes>
            0 -1 0 -1.0563954710960388e-03</internalNodes>
          <leafValues>
            3.1921124831547952e-17 2.6600937359623294e-17</leafValues></_>
        <_>
          <internalNodes>
            0 -1 0 -1.0563954710960388e-03</internalNodes>
          <leafValues>
            3.1921124831547952e-17 2.6600937359623294e-17</leafValues></_>
        <_>
          <internalNodes>
            0 -1 0 -1.0563954710960388e-03</internalNodes>
          <leafValues>
            3.1921124831547952e-17 2.6600937359623294e-17</leafValues></_>
        <_>
          <internalNodes>
            0 -1 0 -1.0563954710960388e-03</internalNodes>
          <leafValues>
            3.1921124831547952e-17 2.6600937359623294e-17</leafValues></_>
        <_>
          <internalNodes>
            0 -1 0 -1.0563954710960388e-03</internalNodes>
          <leafValues>
            3.1921124831547952e-17 2.6600937359623294e-17</leafValues></_>
        <_>
          <internalNodes>
            0 -1 0 -1.0563954710960388e-03</internalNodes>
          <leafValues>
            3.1921124831547952e-17 2.6600937359623294e-17</leafValues></_>
        <_>
          <internalNodes>
            0 -1 0 -1.0563954710960388e-03</internalNodes>
          <leafValues>
            3.1921124831547952e-17 2.6600937359623294e-17</leafValues></_>
        <_>
          <internalNodes>
            0 -1 0 -1.0563954710960388e-03</internalNodes>
          <leafValues>
            3.1921124831547952e-17 2.6600937359623294e-17</leafValues></_>
        <_>
          <internalNodes>
            0 -1 0 -1.0563954710960388e-03</internalNodes>
          <leafValues>
            3.1921124831547952e-17 2.6600937359623294e-17</leafValues></_>
        <_>
          <internalNodes>
            0 -1 0 -1.0563954710960388e-03</internalNodes>
          <leafValues>
            3.1921124831547952e-17 2.6600937359623294e-17</leafValues></_>
        <_>
          <internalNodes>
            0 -1 0 -1.0563954710960388e-03</internalNodes>
          <leafValues>
            3.1921124831547952e-17 2.6600937359623294e-17</leafValues></_>
        <_>
          <internalNodes>
            0 -1 0 -1.0563954710960388e-03</internalNodes>
          <leafValues>
            3.1921124831547952e-17 2.6600937359623294e-17</leafValues></_>
        <_>
          <internalNodes>
            0 -1 0 -1.0563954710960388e-03</internalNodes>
          <leafValues>
            3.1921124831547952e-17 2.6600937359623294e-17</leafValues></_>
        <_>
          <internalNodes>
            0 -1 0 -1.0563954710960388e-03</internalNodes>
          <leafValues>
            3.1921124831547952e-17 2.6600937359623294e-17</leafValues></_>
        <_>
          <internalNodes>
            0 -1 0 -1.0563954710960388e-03</internalNodes>
          <leafValues>
            3.1921124831547952e-17 2.6600937359623294e-17</leafValues></_>
        <_>
          <internalNodes>
            0 -1 0 -1.0563954710960388e-03</internalNodes>
          <leafValues>
            3.1921124831547952e-17 2.6600937359623294e-17</leafValues></_>
        <_>
          <internalNodes>
            0 -1 0 -1.0563954710960388e-03</internalNodes>
          <leafValues>
            3.1921124831547952e-17 2.6600937359623294e-17</leafValues></_>
        <_>
          <internalNodes>
            0 -1 0 -1.0563954710960388e-03</internalNodes>
          <leafValues>
            3.1921124831547952e-17 2.6600937359623294e-17</leafValues></_>
        <_>
          <internalNodes>
            0 -1 0 -1.0563954710960388e-03</internalNodes>
          <leafValues>
            3.1921124831547952e-17 2.6600937359623294e-17</leafValues></_>
        <_>
          <internalNodes>
            0 -1 0 -1.0563954710960388e-03</internalNodes>
          <leafValues>
            3.1921124831547952e-17 2.6600937359623294e-17</leafValues></_>
        <_>
          <internalNodes>
            0 -1 0 -1.0563954710960388e-03</internalNodes>
          <leafValues>
            3.1921124831547952e-17 2.6600937359623294e-17</leafValues></_>
        <_>
          <internalNodes>
            0 -1 0 -1.0563954710960388e-03</internalNodes>
          <leafValues>
            3.1921124831547952e-17 2.6600937359623294e-17</leafValues></_>
        <_>
          <internalNodes>
            0 -1 0 -1.0563954710960388e-03</internalNodes>
          <leafValues>
            3.1921124831547952e-17 2.6600937359623294e-17</leafValues></_>
        <_>
          <internalNodes>
            0 -1 0 -1.0563954710960388e-03</internalNodes>
          <leafValues>
            3.1921124831547952e-17 2.6600937359623294e-17</leafValues></_>
        <_>
          <internalNodes>
            0 -1 0 -1.0563954710960388e-03</internalNodes>
          <leafValues>
            3.1921124831547952e-17 2.6600937359623294e-17</leafValues></_>
        <_>
          <internalNodes>
            0 -1 0 -1.0563954710960388e-03</internalNodes>
          <leafValues>
            3.1921124831547952e-17 2.6600937359623294e-17</leafValues></_>
        <_>
          <internalNodes>
            0 -1 0 -1.0563954710960388e-03</internalNodes>
          <leafValues>
            3.1921124831547952e-17 2.6600937359623294e-17</leafValues></_>
        <_>
          <internalNodes>
            0 -1 0 -1.0563954710960388e-03</internalNodes>
          <leafValues>
            3.1921124831547952e-17 2.6600937359623294e-17</leafValues></_>
        <_>
          <internalNodes>
            0 -1 0 -1.0563954710960388e-03</internalNodes>
          <leafValues>
            3.1921124831547952e-17 2.6600937359623294e-17</leafValues></_>
        <_>
          <internalNodes>
            0 -1 0 -1.0563954710960388e-03</internalNodes>
          <leafValues>
            3.1921124831547952e-17 2.6600937359623294e-17</leafValues></_>
        <_>
          <internalNodes>
            0 -1 0 -1.0563954710960388e-03</internalNodes>
          <leafValues>
            3.1921124831547952e-17 2.6600937359623294e-17</leafValues></_>
        <_>
          <internalNodes>
            0 -1 0 -1.0563954710960388e-03</internalNodes>
          <leafValues>
            3.1921124831547952e-17 2.6600937359623294e-17</leafValues></_>
        <_>
          <internalNodes>
            0 -1 0 -1.0563954710960388e-03</internalNodes>
          <leafValues>
            3.1921124831547952e-17 2.6600937359623294e-17</leafValues></_>
        <_>
          <internalNodes>
            0 -1 0 -1.0563954710960388e-03</internalNodes>
          <leafValues>
            3.1921124831547952e-17 2.6600937359623294e-17</leafValues></_>
        <_>
          <internalNodes>
            0 -1 0 -1.0563954710960388e-03</internalNodes>
          <leafValues>
            3.1921124831547952e-17 2.6600937359623294e-17</leafValues></_></weakClassifiers></_>
    <!-- stage 6 -->
    <_>
      <maxWeakCount>100</maxWeakCount>
      <stageThreshold>-1.7005987167358398e+00</stageThreshold>
      <weakClassifiers>
        <_>
          <internalNodes>
            0 -1 5 -2.4506412446498871e-03</internalNodes>
          <leafValues>
            -9.3548387289047241e-01 1.</leafValues></_>
        <_>
          <internalNodes>
            0 -1 5 -2.4506412446498871e-03</internalNodes>
          <leafValues>
            -6.4407980442047119e-01 1.</leafValues></_>
        <_>
          <internalNodes>
            0 -1 5 -2.4506412446498871e-03</internalNodes>
          <leafValues>
            -1.2044740468263626e-01 1.</leafValues></_>
        <_>
          <internalNodes>
            0 -1 5 -2.4506412446498871e-03</internalNodes>
          <leafValues>
            -5.8758992236107588e-04 1.</leafValues></_>
        <_>
          <internalNodes>
            0 -1 1 -1.2443612795323133e-03</internalNodes>
          <leafValues>
            -6.7624891797457565e-11 -6.7624919553033180e-11</leafValues></_>
        <_>
          <internalNodes>
            0 -1 4 3.3067979529732838e-05</internalNodes>
          <leafValues>
            7.4482624606945222e-17 -4.4689574764167133e-16</leafValues></_>
        <_>
          <internalNodes>
            0 -1 4 3.3067979529732838e-05</internalNodes>
          <leafValues>
            -3.2719151628847671e-16 5.1073799730476724e-16</leafValues></_>
        <_>
          <internalNodes>
            0 -1 2 -5.3355947602540255e-04</internalNodes>
          <leafValues>
            4.2827507825504523e-16 -6.9162437135020564e-17</leafValues></_>
        <_>
          <internalNodes>
            0 -1 10 3.2442802330479026e-04</internalNodes>
          <leafValues>
            -8.1398865673469318e-16 -2.1280749887698635e-17</leafValues></_>
        <_>
          <internalNodes>
            0 -1 9 1.7296974547207355e-03</internalNodes>
          <leafValues>
            3.7640325702122470e-16 5.9586099685556178e-16</leafValues></_>
        <_>
          <internalNodes>
            0 -1 3 -5.7618347927927971e-03</internalNodes>
          <leafValues>
            3.1921124831547952e-17 -2.8196993601200691e-16</leafValues></_>
        <_>
          <internalNodes>
            0 -1 3 -5.7618347927927971e-03</internalNodes>
          <leafValues>
            3.1921124831547952e-17 -1.9152674898928771e-16</leafValues></_>
        <_>
          <internalNodes>
            0 -1 0 -1.0563954710960388e-03</internalNodes>
          <leafValues>
            3.1921124831547952e-17 2.6600937359623294e-17</leafValues></_>
        <_>
          <internalNodes>
            0 -1 0 -1.0563954710960388e-03</internalNodes>
          <leafValues>
            3.1921124831547952e-17 2.6600937359623294e-17</leafValues></_>
        <_>
          <internalNodes>
            0 -1 0 -1.0563954710960388e-03</internalNodes>
          <leafValues>
            3.1921124831547952e-17 2.6600937359623294e-17</leafValues></_>
        <_>
          <internalNodes>
            0 -1 0 -1.0563954710960388e-03</internalNodes>
          <leafValues>
            3.1921124831547952e-17 2.6600937359623294e-17</leafValues></_>
        <_>
          <internalNodes>
            0 -1 0 -1.0563954710960388e-03</internalNodes>
          <leafValues>
            3.1921124831547952e-17 2.6600937359623294e-17</leafValues></_>
        <_>
          <internalNodes>
            0 -1 0 -1.0563954710960388e-03</internalNodes>
          <leafValues>
            3.1921124831547952e-17 2.6600937359623294e-17</leafValues></_>
        <_>
          <internalNodes>
            0 -1 0 -1.0563954710960388e-03</internalNodes>
          <leafValues>
            3.1921124831547952e-17 2.6600937359623294e-17</leafValues></_>
        <_>
          <internalNodes>
            0 -1 0 -1.0563954710960388e-03</internalNodes>
          <leafValues>
            3.1921124831547952e-17 2.6600937359623294e-17</leafValues></_>
        <_>
          <internalNodes>
            0 -1 0 -1.0563954710960388e-03</internalNodes>
          <leafValues>
            3.1921124831547952e-17 2.6600937359623294e-17</leafValues></_>
        <_>
          <internalNodes>
            0 -1 0 -1.0563954710960388e-03</internalNodes>
          <leafValues>
            3.1921124831547952e-17 2.6600937359623294e-17</leafValues></_>
        <_>
          <internalNodes>
            0 -1 0 -1.0563954710960388e-03</internalNodes>
          <leafValues>
            3.1921124831547952e-17 2.6600937359623294e-17</leafValues></_>
        <_>
          <internalNodes>
            0 -1 0 -1.0563954710960388e-03</internalNodes>
          <leafValues>
            3.1921124831547952e-17 2.6600937359623294e-17</leafValues></_>
        <_>
          <internalNodes>
            0 -1 0 -1.0563954710960388e-03</internalNodes>
          <leafValues>
            3.1921124831547952e-17 2.6600937359623294e-17</leafValues></_>
        <_>
          <internalNodes>
            0 -1 0 -1.0563954710960388e-03</internalNodes>
          <leafValues>
            3.1921124831547952e-17 2.6600937359623294e-17</leafValues></_>
        <_>
          <internalNodes>
            0 -1 0 -1.0563954710960388e-03</internalNodes>
          <leafValues>
            3.1921124831547952e-17 2.6600937359623294e-17</leafValues></_>
        <_>
          <internalNodes>
            0 -1 0 -1.0563954710960388e-03</internalNodes>
          <leafValues>
            3.1921124831547952e-17 2.6600937359623294e-17</leafValues></_>
        <_>
          <internalNodes>
            0 -1 0 -1.0563954710960388e-03</internalNodes>
          <leafValues>
            3.1921124831547952e-17 2.6600937359623294e-17</leafValues></_>
        <_>
          <internalNodes>
            0 -1 0 -1.0563954710960388e-03</internalNodes>
          <leafValues>
            3.1921124831547952e-17 2.6600937359623294e-17</leafValues></_>
        <_>
          <internalNodes>
            0 -1 0 -1.0563954710960388e-03</internalNodes>
          <leafValues>
            3.1921124831547952e-17 2.6600937359623294e-17</leafValues></_>
        <_>
          <internalNodes>
            0 -1 0 -1.0563954710960388e-03</internalNodes>
          <leafValues>
            3.1921124831547952e-17 2.6600937359623294e-17</leafValues></_>
        <_>
          <internalNodes>
            0 -1 0 -1.0563954710960388e-03</internalNodes>
          <leafValues>
            3.1921124831547952e-17 2.6600937359623294e-17</leafValues></_>
        <_>
          <internalNodes>
            0 -1 0 -1.0563954710960388e-03</internalNodes>
          <leafValues>
            3.1921124831547952e-17 2.6600937359623294e-17</leafValues></_>
        <_>
          <internalNodes>
            0 -1 0 -1.0563954710960388e-03</internalNodes>
          <leafValues>
            3.1921124831547952e-17 2.6600937359623294e-17</leafValues></_>
        <_>
          <internalNodes>
            0 -1 0 -1.0563954710960388e-03</internalNodes>
          <leafValues>
            3.1921124831547952e-17 2.6600937359623294e-17</leafValues></_>
        <_>
          <internalNodes>
            0 -1 0 -1.0563954710960388e-03</internalNodes>
          <leafValues>
            3.1921124831547952e-17 2.6600937359623294e-17</leafValues></_>
        <_>
          <internalNodes>
            0 -1 0 -1.0563954710960388e-03</internalNodes>
          <leafValues>
            3.1921124831547952e-17 2.6600937359623294e-17</leafValues></_>
        <_>
          <internalNodes>
            0 -1 0 -1.0563954710960388e-03</internalNodes>
          <leafValues>
            3.1921124831547952e-17 2.6600937359623294e-17</leafValues></_>
        <_>
          <internalNodes>
            0 -1 0 -1.0563954710960388e-03</internalNodes>
          <leafValues>
            3.1921124831547952e-17 2.6600937359623294e-17</leafValues></_>
        <_>
          <internalNodes>
            0 -1 0 -1.0563954710960388e-03</internalNodes>
          <leafValues>
            3.1921124831547952e-17 2.6600937359623294e-17</leafValues></_>
        <_>
          <internalNodes>
            0 -1 0 -1.0563954710960388e-03</internalNodes>
          <leafValues>
            3.1921124831547952e-17 2.6600937359623294e-17</leafValues></_>
        <_>
          <internalNodes>
            0 -1 0 -1.0563954710960388e-03</internalNodes>
          <leafValues>
            3.1921124831547952e-17 2.6600937359623294e-17</leafValues></_>
        <_>
          <internalNodes>
            0 -1 0 -1.0563954710960388e-03</internalNodes>
          <leafValues>
            3.1921124831547952e-17 2.6600937359623294e-17</leafValues></_>
        <_>
          <internalNodes>
            0 -1 0 -1.0563954710960388e-03</internalNodes>
          <leafValues>
            3.1921124831547952e-17 2.6600937359623294e-17</leafValues></_>
        <_>
          <internalNodes>
            0 -1 0 -1.0563954710960388e-03</internalNodes>
          <leafValues>
            3.1921124831547952e-17 2.6600937359623294e-17</leafValues></_>
        <_>
          <internalNodes>
            0 -1 0 -1.0563954710960388e-03</internalNodes>
          <leafValues>
            3.1921124831547952e-17 2.6600937359623294e-17</leafValues></_>
        <_>
          <internalNodes>
            0 -1 0 -1.0563954710960388e-03</internalNodes>
          <leafValues>
            3.1921124831547952e-17 2.6600937359623294e-17</leafValues></_>
        <_>
          <internalNodes>
            0 -1 0 -1.0563954710960388e-03</internalNodes>
          <leafValues>
            3.1921124831547952e-17 2.6600937359623294e-17</leafValues></_>
        <_>
          <internalNodes>
            0 -1 0 -1.0563954710960388e-03</internalNodes>
          <leafValues>
            3.1921124831547952e-17 2.6600937359623294e-17</leafValues></_>
        <_>
          <internalNodes>
            0 -1 0 -1.0563954710960388e-03</internalNodes>
          <leafValues>
            3.1921124831547952e-17 2.6600937359623294e-17</leafValues></_>
        <_>
          <internalNodes>
            0 -1 0 -1.0563954710960388e-03</internalNodes>
          <leafValues>
            3.1921124831547952e-17 2.6600937359623294e-17</leafValues></_>
        <_>
          <internalNodes>
            0 -1 0 -1.0563954710960388e-03</internalNodes>
          <leafValues>
            3.1921124831547952e-17 2.6600937359623294e-17</leafValues></_>
        <_>
          <internalNodes>
            0 -1 0 -1.0563954710960388e-03</internalNodes>
          <leafValues>
            3.1921124831547952e-17 2.6600937359623294e-17</leafValues></_>
        <_>
          <internalNodes>
            0 -1 0 -1.0563954710960388e-03</internalNodes>
          <leafValues>
            3.1921124831547952e-17 2.6600937359623294e-17</leafValues></_>
        <_>
          <internalNodes>
            0 -1 0 -1.0563954710960388e-03</internalNodes>
          <leafValues>
            3.1921124831547952e-17 2.6600937359623294e-17</leafValues></_>
        <_>
          <internalNodes>
            0 -1 0 -1.0563954710960388e-03</internalNodes>
          <leafValues>
            3.1921124831547952e-17 2.6600937359623294e-17</leafValues></_>
        <_>
          <internalNodes>
            0 -1 0 -1.0563954710960388e-03</internalNodes>
          <leafValues>
            3.1921124831547952e-17 2.6600937359623294e-17</leafValues></_>
        <_>
          <internalNodes>
            0 -1 0 -1.0563954710960388e-03</internalNodes>
          <leafValues>
            3.1921124831547952e-17 2.6600937359623294e-17</leafValues></_>
        <_>
          <internalNodes>
            0 -1 0 -1.0563954710960388e-03</internalNodes>
          <leafValues>
            3.1921124831547952e-17 2.6600937359623294e-17</leafValues></_>
        <_>
          <internalNodes>
            0 -1 0 -1.0563954710960388e-03</internalNodes>
          <leafValues>
            3.1921124831547952e-17 2.6600937359623294e-17</leafValues></_>
        <_>
          <internalNodes>
            0 -1 0 -1.0563954710960388e-03</internalNodes>
          <leafValues>
            3.1921124831547952e-17 2.6600937359623294e-17</leafValues></_>
        <_>
          <internalNodes>
            0 -1 0 -1.0563954710960388e-03</internalNodes>
          <leafValues>
            3.1921124831547952e-17 2.6600937359623294e-17</leafValues></_>
        <_>
          <internalNodes>
            0 -1 0 -1.0563954710960388e-03</internalNodes>
          <leafValues>
            3.1921124831547952e-17 2.6600937359623294e-17</leafValues></_>
        <_>
          <internalNodes>
            0 -1 0 -1.0563954710960388e-03</internalNodes>
          <leafValues>
            3.1921124831547952e-17 2.6600937359623294e-17</leafValues></_>
        <_>
          <internalNodes>
            0 -1 0 -1.0563954710960388e-03</internalNodes>
          <leafValues>
            3.1921124831547952e-17 2.6600937359623294e-17</leafValues></_>
        <_>
          <internalNodes>
            0 -1 0 -1.0563954710960388e-03</internalNodes>
          <leafValues>
            3.1921124831547952e-17 2.6600937359623294e-17</leafValues></_>
        <_>
          <internalNodes>
            0 -1 0 -1.0563954710960388e-03</internalNodes>
          <leafValues>
            3.1921124831547952e-17 2.6600937359623294e-17</leafValues></_>
        <_>
          <internalNodes>
            0 -1 0 -1.0563954710960388e-03</internalNodes>
          <leafValues>
            3.1921124831547952e-17 2.6600937359623294e-17</leafValues></_>
        <_>
          <internalNodes>
            0 -1 0 -1.0563954710960388e-03</internalNodes>
          <leafValues>
            3.1921124831547952e-17 2.6600937359623294e-17</leafValues></_>
        <_>
          <internalNodes>
            0 -1 0 -1.0563954710960388e-03</internalNodes>
          <leafValues>
            3.1921124831547952e-17 2.6600937359623294e-17</leafValues></_>
        <_>
          <internalNodes>
            0 -1 0 -1.0563954710960388e-03</internalNodes>
          <leafValues>
            3.1921124831547952e-17 2.6600937359623294e-17</leafValues></_>
        <_>
          <internalNodes>
            0 -1 0 -1.0563954710960388e-03</internalNodes>
          <leafValues>
            3.1921124831547952e-17 2.6600937359623294e-17</leafValues></_>
        <_>
          <internalNodes>
            0 -1 0 -1.0563954710960388e-03</internalNodes>
          <leafValues>
            3.1921124831547952e-17 2.6600937359623294e-17</leafValues></_>
        <_>
          <internalNodes>
            0 -1 0 -1.0563954710960388e-03</internalNodes>
          <leafValues>
            3.1921124831547952e-17 2.6600937359623294e-17</leafValues></_>
        <_>
          <internalNodes>
            0 -1 0 -1.0563954710960388e-03</internalNodes>
          <leafValues>
            3.1921124831547952e-17 2.6600937359623294e-17</leafValues></_>
        <_>
          <internalNodes>
            0 -1 0 -1.0563954710960388e-03</internalNodes>
          <leafValues>
            3.1921124831547952e-17 2.6600937359623294e-17</leafValues></_>
        <_>
          <internalNodes>
            0 -1 0 -1.0563954710960388e-03</internalNodes>
          <leafValues>
            3.1921124831547952e-17 2.6600937359623294e-17</leafValues></_>
        <_>
          <internalNodes>
            0 -1 0 -1.0563954710960388e-03</internalNodes>
          <leafValues>
            3.1921124831547952e-17 2.6600937359623294e-17</leafValues></_>
        <_>
          <internalNodes>
            0 -1 0 -1.0563954710960388e-03</internalNodes>
          <leafValues>
            3.1921124831547952e-17 2.6600937359623294e-17</leafValues></_>
        <_>
          <internalNodes>
            0 -1 0 -1.0563954710960388e-03</internalNodes>
          <leafValues>
            3.1921124831547952e-17 2.6600937359623294e-17</leafValues></_>
        <_>
          <internalNodes>
            0 -1 0 -1.0563954710960388e-03</internalNodes>
          <leafValues>
            3.1921124831547952e-17 2.6600937359623294e-17</leafValues></_>
        <_>
          <internalNodes>
            0 -1 0 -1.0563954710960388e-03</internalNodes>
          <leafValues>
            3.1921124831547952e-17 2.6600937359623294e-17</leafValues></_>
        <_>
          <internalNodes>
            0 -1 0 -1.0563954710960388e-03</internalNodes>
          <leafValues>
            3.1921124831547952e-17 2.6600937359623294e-17</leafValues></_>
        <_>
          <internalNodes>
            0 -1 0 -1.0563954710960388e-03</internalNodes>
          <leafValues>
            3.1921124831547952e-17 2.6600937359623294e-17</leafValues></_>
        <_>
          <internalNodes>
            0 -1 0 -1.0563954710960388e-03</internalNodes>
          <leafValues>
            3.1921124831547952e-17 2.6600937359623294e-17</leafValues></_>
        <_>
          <internalNodes>
            0 -1 0 -1.0563954710960388e-03</internalNodes>
          <leafValues>
            3.1921124831547952e-17 2.6600937359623294e-17</leafValues></_>
        <_>
          <internalNodes>
            0 -1 0 -1.0563954710960388e-03</internalNodes>
          <leafValues>
            3.1921124831547952e-17 2.6600937359623294e-17</leafValues></_>
        <_>
          <internalNodes>
            0 -1 0 -1.0563954710960388e-03</internalNodes>
          <leafValues>
            3.1921124831547952e-17 2.6600937359623294e-17</leafValues></_>
        <_>
          <internalNodes>
            0 -1 0 -1.0563954710960388e-03</internalNodes>
          <leafValues>
            3.1921124831547952e-17 2.6600937359623294e-17</leafValues></_>
        <_>
          <internalNodes>
            0 -1 0 -1.0563954710960388e-03</internalNodes>
          <leafValues>
            3.1921124831547952e-17 2.6600937359623294e-17</leafValues></_>
        <_>
          <internalNodes>
            0 -1 0 -1.0563954710960388e-03</internalNodes>
          <leafValues>
            3.1921124831547952e-17 2.6600937359623294e-17</leafValues></_>
        <_>
          <internalNodes>
            0 -1 0 -1.0563954710960388e-03</internalNodes>
          <leafValues>
            3.1921124831547952e-17 2.6600937359623294e-17</leafValues></_>
        <_>
          <internalNodes>
            0 -1 0 -1.0563954710960388e-03</internalNodes>
          <leafValues>
            3.1921124831547952e-17 2.6600937359623294e-17</leafValues></_>
        <_>
          <internalNodes>
            0 -1 0 -1.0563954710960388e-03</internalNodes>
          <leafValues>
            3.1921124831547952e-17 2.6600937359623294e-17</leafValues></_>
        <_>
          <internalNodes>
            0 -1 0 -1.0563954710960388e-03</internalNodes>
          <leafValues>
            3.1921124831547952e-17 2.6600937359623294e-17</leafValues></_>
        <_>
          <internalNodes>
            0 -1 0 -1.0563954710960388e-03</internalNodes>
          <leafValues>
            3.1921124831547952e-17 2.6600937359623294e-17</leafValues></_>
        <_>
          <internalNodes>
            0 -1 0 -1.0563954710960388e-03</internalNodes>
          <leafValues>
            3.1921124831547952e-17 2.6600937359623294e-17</leafValues></_>
        <_>
          <internalNodes>
            0 -1 0 -1.0563954710960388e-03</internalNodes>
          <leafValues>
            3.1921124831547952e-17 2.6600937359623294e-17</leafValues></_>
        <_>
          <internalNodes>
            0 -1 0 -1.0563954710960388e-03</internalNodes>
          <leafValues>
            3.1921124831547952e-17 2.6600937359623294e-17</leafValues></_></weakClassifiers></_>
    <!-- stage 7 -->
    <_>
      <maxWeakCount>100</maxWeakCount>
      <stageThreshold>-1.7005987167358398e+00</stageThreshold>
      <weakClassifiers>
        <_>
          <internalNodes>
            0 -1 5 -2.4506412446498871e-03</internalNodes>
          <leafValues>
            -9.3548387289047241e-01 1.</leafValues></_>
        <_>
          <internalNodes>
            0 -1 5 -2.4506412446498871e-03</internalNodes>
          <leafValues>
            -6.4407980442047119e-01 1.</leafValues></_>
        <_>
          <internalNodes>
            0 -1 5 -2.4506412446498871e-03</internalNodes>
          <leafValues>
            -1.2044740468263626e-01 1.</leafValues></_>
        <_>
          <internalNodes>
            0 -1 5 -2.4506412446498871e-03</internalNodes>
          <leafValues>
            -5.8758992236107588e-04 1.</leafValues></_>
        <_>
          <internalNodes>
            0 -1 1 -1.2443612795323133e-03</internalNodes>
          <leafValues>
            -6.7624891797457565e-11 -6.7624919553033180e-11</leafValues></_>
        <_>
          <internalNodes>
            0 -1 4 3.3067979529732838e-05</internalNodes>
          <leafValues>
            7.4482624606945222e-17 -4.4689574764167133e-16</leafValues></_>
        <_>
          <internalNodes>
            0 -1 4 3.3067979529732838e-05</internalNodes>
          <leafValues>
            -3.2719151628847671e-16 5.1073799730476724e-16</leafValues></_>
        <_>
          <internalNodes>
            0 -1 2 -5.3355947602540255e-04</internalNodes>
          <leafValues>
            4.2827507825504523e-16 -6.9162437135020564e-17</leafValues></_>
        <_>
          <internalNodes>
            0 -1 10 3.2442802330479026e-04</internalNodes>
          <leafValues>
            -8.1398865673469318e-16 -2.1280749887698635e-17</leafValues></_>
        <_>
          <internalNodes>
            0 -1 9 1.7296974547207355e-03</internalNodes>
          <leafValues>
            3.7640325702122470e-16 5.9586099685556178e-16</leafValues></_>
        <_>
          <internalNodes>
            0 -1 3 -5.7618347927927971e-03</internalNodes>
          <leafValues>
            3.1921124831547952e-17 -2.8196993601200691e-16</leafValues></_>
        <_>
          <internalNodes>
            0 -1 3 -5.7618347927927971e-03</internalNodes>
          <leafValues>
            3.1921124831547952e-17 -1.9152674898928771e-16</leafValues></_>
        <_>
          <internalNodes>
            0 -1 0 -1.0563954710960388e-03</internalNodes>
          <leafValues>
            3.1921124831547952e-17 2.6600937359623294e-17</leafValues></_>
        <_>
          <internalNodes>
            0 -1 0 -1.0563954710960388e-03</internalNodes>
          <leafValues>
            3.1921124831547952e-17 2.6600937359623294e-17</leafValues></_>
        <_>
          <internalNodes>
            0 -1 0 -1.0563954710960388e-03</internalNodes>
          <leafValues>
            3.1921124831547952e-17 2.6600937359623294e-17</leafValues></_>
        <_>
          <internalNodes>
            0 -1 0 -1.0563954710960388e-03</internalNodes>
          <leafValues>
            3.1921124831547952e-17 2.6600937359623294e-17</leafValues></_>
        <_>
          <internalNodes>
            0 -1 0 -1.0563954710960388e-03</internalNodes>
          <leafValues>
            3.1921124831547952e-17 2.6600937359623294e-17</leafValues></_>
        <_>
          <internalNodes>
            0 -1 0 -1.0563954710960388e-03</internalNodes>
          <leafValues>
            3.1921124831547952e-17 2.6600937359623294e-17</leafValues></_>
        <_>
          <internalNodes>
            0 -1 0 -1.0563954710960388e-03</internalNodes>
          <leafValues>
            3.1921124831547952e-17 2.6600937359623294e-17</leafValues></_>
        <_>
          <internalNodes>
            0 -1 0 -1.0563954710960388e-03</internalNodes>
          <leafValues>
            3.1921124831547952e-17 2.6600937359623294e-17</leafValues></_>
        <_>
          <internalNodes>
            0 -1 0 -1.0563954710960388e-03</internalNodes>
          <leafValues>
            3.1921124831547952e-17 2.6600937359623294e-17</leafValues></_>
        <_>
          <internalNodes>
            0 -1 0 -1.0563954710960388e-03</internalNodes>
          <leafValues>
            3.1921124831547952e-17 2.6600937359623294e-17</leafValues></_>
        <_>
          <internalNodes>
            0 -1 0 -1.0563954710960388e-03</internalNodes>
          <leafValues>
            3.1921124831547952e-17 2.6600937359623294e-17</leafValues></_>
        <_>
          <internalNodes>
            0 -1 0 -1.0563954710960388e-03</internalNodes>
          <leafValues>
            3.1921124831547952e-17 2.6600937359623294e-17</leafValues></_>
        <_>
          <internalNodes>
            0 -1 0 -1.0563954710960388e-03</internalNodes>
          <leafValues>
            3.1921124831547952e-17 2.6600937359623294e-17</leafValues></_>
        <_>
          <internalNodes>
            0 -1 0 -1.0563954710960388e-03</internalNodes>
          <leafValues>
            3.1921124831547952e-17 2.6600937359623294e-17</leafValues></_>
        <_>
          <internalNodes>
            0 -1 0 -1.0563954710960388e-03</internalNodes>
          <leafValues>
            3.1921124831547952e-17 2.6600937359623294e-17</leafValues></_>
        <_>
          <internalNodes>
            0 -1 0 -1.0563954710960388e-03</internalNodes>
          <leafValues>
            3.1921124831547952e-17 2.6600937359623294e-17</leafValues></_>
        <_>
          <internalNodes>
            0 -1 0 -1.0563954710960388e-03</internalNodes>
          <leafValues>
            3.1921124831547952e-17 2.6600937359623294e-17</leafValues></_>
        <_>
          <internalNodes>
            0 -1 0 -1.0563954710960388e-03</internalNodes>
          <leafValues>
            3.1921124831547952e-17 2.6600937359623294e-17</leafValues></_>
        <_>
          <internalNodes>
            0 -1 0 -1.0563954710960388e-03</internalNodes>
          <leafValues>
            3.1921124831547952e-17 2.6600937359623294e-17</leafValues></_>
        <_>
          <internalNodes>
            0 -1 0 -1.0563954710960388e-03</internalNodes>
          <leafValues>
            3.1921124831547952e-17 2.6600937359623294e-17</leafValues></_>
        <_>
          <internalNodes>
            0 -1 0 -1.0563954710960388e-03</internalNodes>
          <leafValues>
            3.1921124831547952e-17 2.6600937359623294e-17</leafValues></_>
        <_>
          <internalNodes>
            0 -1 0 -1.0563954710960388e-03</internalNodes>
          <leafValues>
            3.1921124831547952e-17 2.6600937359623294e-17</leafValues></_>
        <_>
          <internalNodes>
            0 -1 0 -1.0563954710960388e-03</internalNodes>
          <leafValues>
            3.1921124831547952e-17 2.6600937359623294e-17</leafValues></_>
        <_>
          <internalNodes>
            0 -1 0 -1.0563954710960388e-03</internalNodes>
          <leafValues>
            3.1921124831547952e-17 2.6600937359623294e-17</leafValues></_>
        <_>
          <internalNodes>
            0 -1 0 -1.0563954710960388e-03</internalNodes>
          <leafValues>
            3.1921124831547952e-17 2.6600937359623294e-17</leafValues></_>
        <_>
          <internalNodes>
            0 -1 0 -1.0563954710960388e-03</internalNodes>
          <leafValues>
            3.1921124831547952e-17 2.6600937359623294e-17</leafValues></_>
        <_>
          <internalNodes>
            0 -1 0 -1.0563954710960388e-03</internalNodes>
          <leafValues>
            3.1921124831547952e-17 2.6600937359623294e-17</leafValues></_>
        <_>
          <internalNodes>
            0 -1 0 -1.0563954710960388e-03</internalNodes>
          <leafValues>
            3.1921124831547952e-17 2.6600937359623294e-17</leafValues></_>
        <_>
          <internalNodes>
            0 -1 0 -1.0563954710960388e-03</internalNodes>
          <leafValues>
            3.1921124831547952e-17 2.6600937359623294e-17</leafValues></_>
        <_>
          <internalNodes>
            0 -1 0 -1.0563954710960388e-03</internalNodes>
          <leafValues>
            3.1921124831547952e-17 2.6600937359623294e-17</leafValues></_>
        <_>
          <internalNodes>
            0 -1 0 -1.0563954710960388e-03</internalNodes>
          <leafValues>
            3.1921124831547952e-17 2.6600937359623294e-17</leafValues></_>
        <_>
          <internalNodes>
            0 -1 0 -1.0563954710960388e-03</internalNodes>
          <leafValues>
            3.1921124831547952e-17 2.6600937359623294e-17</leafValues></_>
        <_>
          <internalNodes>
            0 -1 0 -1.0563954710960388e-03</internalNodes>
          <leafValues>
            3.1921124831547952e-17 2.6600937359623294e-17</leafValues></_>
        <_>
          <internalNodes>
            0 -1 0 -1.0563954710960388e-03</internalNodes>
          <leafValues>
            3.1921124831547952e-17 2.6600937359623294e-17</leafValues></_>
        <_>
          <internalNodes>
            0 -1 0 -1.0563954710960388e-03</internalNodes>
          <leafValues>
            3.1921124831547952e-17 2.6600937359623294e-17</leafValues></_>
        <_>
          <internalNodes>
            0 -1 0 -1.0563954710960388e-03</internalNodes>
          <leafValues>
            3.1921124831547952e-17 2.6600937359623294e-17</leafValues></_>
        <_>
          <internalNodes>
            0 -1 0 -1.0563954710960388e-03</internalNodes>
          <leafValues>
            3.1921124831547952e-17 2.6600937359623294e-17</leafValues></_>
        <_>
          <internalNodes>
            0 -1 0 -1.0563954710960388e-03</internalNodes>
          <leafValues>
            3.1921124831547952e-17 2.6600937359623294e-17</leafValues></_>
        <_>
          <internalNodes>
            0 -1 0 -1.0563954710960388e-03</internalNodes>
          <leafValues>
            3.1921124831547952e-17 2.6600937359623294e-17</leafValues></_>
        <_>
          <internalNodes>
            0 -1 0 -1.0563954710960388e-03</internalNodes>
          <leafValues>
            3.1921124831547952e-17 2.6600937359623294e-17</leafValues></_>
        <_>
          <internalNodes>
            0 -1 0 -1.0563954710960388e-03</internalNodes>
          <leafValues>
            3.1921124831547952e-17 2.6600937359623294e-17</leafValues></_>
        <_>
          <internalNodes>
            0 -1 0 -1.0563954710960388e-03</internalNodes>
          <leafValues>
            3.1921124831547952e-17 2.6600937359623294e-17</leafValues></_>
        <_>
          <internalNodes>
            0 -1 0 -1.0563954710960388e-03</internalNodes>
          <leafValues>
            3.1921124831547952e-17 2.6600937359623294e-17</leafValues></_>
        <_>
          <internalNodes>
            0 -1 0 -1.0563954710960388e-03</internalNodes>
          <leafValues>
            3.1921124831547952e-17 2.6600937359623294e-17</leafValues></_>
        <_>
          <internalNodes>
            0 -1 0 -1.0563954710960388e-03</internalNodes>
          <leafValues>
            3.1921124831547952e-17 2.6600937359623294e-17</leafValues></_>
        <_>
          <internalNodes>
            0 -1 0 -1.0563954710960388e-03</internalNodes>
          <leafValues>
            3.1921124831547952e-17 2.6600937359623294e-17</leafValues></_>
        <_>
          <internalNodes>
            0 -1 0 -1.0563954710960388e-03</internalNodes>
          <leafValues>
            3.1921124831547952e-17 2.6600937359623294e-17</leafValues></_>
        <_>
          <internalNodes>
            0 -1 0 -1.0563954710960388e-03</internalNodes>
          <leafValues>
            3.1921124831547952e-17 2.6600937359623294e-17</leafValues></_>
        <_>
          <internalNodes>
            0 -1 0 -1.0563954710960388e-03</internalNodes>
          <leafValues>
            3.1921124831547952e-17 2.6600937359623294e-17</leafValues></_>
        <_>
          <internalNodes>
            0 -1 0 -1.0563954710960388e-03</internalNodes>
          <leafValues>
            3.1921124831547952e-17 2.6600937359623294e-17</leafValues></_>
        <_>
          <internalNodes>
            0 -1 0 -1.0563954710960388e-03</internalNodes>
          <leafValues>
            3.1921124831547952e-17 2.6600937359623294e-17</leafValues></_>
        <_>
          <internalNodes>
            0 -1 0 -1.0563954710960388e-03</internalNodes>
          <leafValues>
            3.1921124831547952e-17 2.6600937359623294e-17</leafValues></_>
        <_>
          <internalNodes>
            0 -1 0 -1.0563954710960388e-03</internalNodes>
          <leafValues>
            3.1921124831547952e-17 2.6600937359623294e-17</leafValues></_>
        <_>
          <internalNodes>
            0 -1 0 -1.0563954710960388e-03</internalNodes>
          <leafValues>
            3.1921124831547952e-17 2.6600937359623294e-17</leafValues></_>
        <_>
          <internalNodes>
            0 -1 0 -1.0563954710960388e-03</internalNodes>
          <leafValues>
            3.1921124831547952e-17 2.6600937359623294e-17</leafValues></_>
        <_>
          <internalNodes>
            0 -1 0 -1.0563954710960388e-03</internalNodes>
          <leafValues>
            3.1921124831547952e-17 2.6600937359623294e-17</leafValues></_>
        <_>
          <internalNodes>
            0 -1 0 -1.0563954710960388e-03</internalNodes>
          <leafValues>
            3.1921124831547952e-17 2.6600937359623294e-17</leafValues></_>
        <_>
          <internalNodes>
            0 -1 0 -1.0563954710960388e-03</internalNodes>
          <leafValues>
            3.1921124831547952e-17 2.6600937359623294e-17</leafValues></_>
        <_>
          <internalNodes>
            0 -1 0 -1.0563954710960388e-03</internalNodes>
          <leafValues>
            3.1921124831547952e-17 2.6600937359623294e-17</leafValues></_>
        <_>
          <internalNodes>
            0 -1 0 -1.0563954710960388e-03</internalNodes>
          <leafValues>
            3.1921124831547952e-17 2.6600937359623294e-17</leafValues></_>
        <_>
          <internalNodes>
            0 -1 0 -1.0563954710960388e-03</internalNodes>
          <leafValues>
            3.1921124831547952e-17 2.6600937359623294e-17</leafValues></_>
        <_>
          <internalNodes>
            0 -1 0 -1.0563954710960388e-03</internalNodes>
          <leafValues>
            3.1921124831547952e-17 2.6600937359623294e-17</leafValues></_>
        <_>
          <internalNodes>
            0 -1 0 -1.0563954710960388e-03</internalNodes>
          <leafValues>
            3.1921124831547952e-17 2.6600937359623294e-17</leafValues></_>
        <_>
          <internalNodes>
            0 -1 0 -1.0563954710960388e-03</internalNodes>
          <leafValues>
            3.1921124831547952e-17 2.6600937359623294e-17</leafValues></_>
        <_>
          <internalNodes>
            0 -1 0 -1.0563954710960388e-03</internalNodes>
          <leafValues>
            3.1921124831547952e-17 2.6600937359623294e-17</leafValues></_>
        <_>
          <internalNodes>
            0 -1 0 -1.0563954710960388e-03</internalNodes>
          <leafValues>
            3.1921124831547952e-17 2.6600937359623294e-17</leafValues></_>
        <_>
          <internalNodes>
            0 -1 0 -1.0563954710960388e-03</internalNodes>
          <leafValues>
            3.1921124831547952e-17 2.6600937359623294e-17</leafValues></_>
        <_>
          <internalNodes>
            0 -1 0 -1.0563954710960388e-03</internalNodes>
          <leafValues>
            3.1921124831547952e-17 2.6600937359623294e-17</leafValues></_>
        <_>
          <internalNodes>
            0 -1 0 -1.0563954710960388e-03</internalNodes>
          <leafValues>
            3.1921124831547952e-17 2.6600937359623294e-17</leafValues></_>
        <_>
          <internalNodes>
            0 -1 0 -1.0563954710960388e-03</internalNodes>
          <leafValues>
            3.1921124831547952e-17 2.6600937359623294e-17</leafValues></_>
        <_>
          <internalNodes>
            0 -1 0 -1.0563954710960388e-03</internalNodes>
          <leafValues>
            3.1921124831547952e-17 2.6600937359623294e-17</leafValues></_>
        <_>
          <internalNodes>
            0 -1 0 -1.0563954710960388e-03</internalNodes>
          <leafValues>
            3.1921124831547952e-17 2.6600937359623294e-17</leafValues></_>
        <_>
          <internalNodes>
            0 -1 0 -1.0563954710960388e-03</internalNodes>
          <leafValues>
            3.1921124831547952e-17 2.6600937359623294e-17</leafValues></_>
        <_>
          <internalNodes>
            0 -1 0 -1.0563954710960388e-03</internalNodes>
          <leafValues>
            3.1921124831547952e-17 2.6600937359623294e-17</leafValues></_>
        <_>
          <internalNodes>
            0 -1 0 -1.0563954710960388e-03</internalNodes>
          <leafValues>
            3.1921124831547952e-17 2.6600937359623294e-17</leafValues></_>
        <_>
          <internalNodes>
            0 -1 0 -1.0563954710960388e-03</internalNodes>
          <leafValues>
            3.1921124831547952e-17 2.6600937359623294e-17</leafValues></_>
        <_>
          <internalNodes>
            0 -1 0 -1.0563954710960388e-03</internalNodes>
          <leafValues>
            3.1921124831547952e-17 2.6600937359623294e-17</leafValues></_>
        <_>
          <internalNodes>
            0 -1 0 -1.0563954710960388e-03</internalNodes>
          <leafValues>
            3.1921124831547952e-17 2.6600937359623294e-17</leafValues></_>
        <_>
          <internalNodes>
            0 -1 0 -1.0563954710960388e-03</internalNodes>
          <leafValues>
            3.1921124831547952e-17 2.6600937359623294e-17</leafValues></_>
        <_>
          <internalNodes>
            0 -1 0 -1.0563954710960388e-03</internalNodes>
          <leafValues>
            3.1921124831547952e-17 2.6600937359623294e-17</leafValues></_>
        <_>
          <internalNodes>
            0 -1 0 -1.0563954710960388e-03</internalNodes>
          <leafValues>
            3.1921124831547952e-17 2.6600937359623294e-17</leafValues></_>
        <_>
          <internalNodes>
            0 -1 0 -1.0563954710960388e-03</internalNodes>
          <leafValues>
            3.1921124831547952e-17 2.6600937359623294e-17</leafValues></_>
        <_>
          <internalNodes>
            0 -1 0 -1.0563954710960388e-03</internalNodes>
          <leafValues>
            3.1921124831547952e-17 2.6600937359623294e-17</leafValues></_>
        <_>
          <internalNodes>
            0 -1 0 -1.0563954710960388e-03</internalNodes>
          <leafValues>
            3.1921124831547952e-17 2.6600937359623294e-17</leafValues></_>
        <_>
          <internalNodes>
            0 -1 0 -1.0563954710960388e-03</internalNodes>
          <leafValues>
            3.1921124831547952e-17 2.6600937359623294e-17</leafValues></_>
        <_>
          <internalNodes>
            0 -1 0 -1.0563954710960388e-03</internalNodes>
          <leafValues>
